{"learner":{"attributes":{"scikit_learn":"{\"_estimator_type\": \"regressor\"}"},"feature_names":["Cycle","Voltage_mean","Temperature_max","Time_at_max_temp","Discharge_duration"],"feature_types":["int","float","float","float","float"],"gradient_booster":{"model":{"gbtree_model_param":{"num_parallel_tree":"1","num_trees":"100"},"iteration_indptr":[0,1,2,3,4,5,6,7,8,9,10,11,12,13,14,15,16,17,18,19,20,21,22,23,24,25,26,27,28,29,30,31,32,33,34,35,36,37,38,39,40,41,42,43,44,45,46,47,48,49,50,51,52,53,54,55,56,57,58,59,60,61,62,63,64,65,66,67,68,69,70,71,72,73,74,75,76,77,78,79,80,81,82,83,84,85,86,87,88,89,90,91,92,93,94,95,96,97,98,99,100],"tree_info":[0,0,0,0,0,0,0,0,0,0,0,0,0,0,0,0,0,0,0,0,0,0,0,0,0,0,0,0,0,0,0,0,0,0,0,0,0,0,0,0,0,0,0,0,0,0,0,0,0,0,0,0,0,0,0,0,0,0,0,0,0,0,0,0,0,0,0,0,0,0,0,0,0,0,0,0,0,0,0,0,0,0,0,0,0,0,0,0,0,0,0,0,0,0,0,0,0,0,0,0],"trees":[{"base_weights":[4.037857E-3,-1.5646693E-1,2.7393526E-1,-2.7463424E-1,-6.7117676E-2,1.5142038E-1,4.0188235E-1,2.2039635E-2,-2.9753262E-1,-2.4191628E-1,-1.942782E-2,4.226553E-2,2.210882E-1,3.3339825E-1,7.744563E-2,-5.9796512E-2,-2.4417728E-1,-2.1764195E-2,-2.7023506E-1,-9.788418E-2,3.7916884E-2,-1.6130513E-2,9.517683E-2,2.765001E-2,4.0660344E-2,2.8199486E-2,6.059351E-2,-4.3197513E-2,-3.3862688E-2,-4.9225237E-2,-2.9673517E-2,7.33749E-3,-1.1708947E-1,3.0145425E-2,2.313919E-2,5.819119E-3,-8.934208E-3,2.0434853E-2,6.8292567E-3,-2.5801133E-2,-7.436389E-2,-1.1509823E-2,4.348526E-2,-1.4572046E-2,-9.471585E-3,2.5311764E-3,1.0097395E-1,-2.333966E-2,2.3143474E-2,1.2382376E-2,2.0217078E-2,-1.9576405E-3,-5.7159793E-3,2.6505336E-3,5.5169254E-3],"categories":[],"categories_nodes":[],"categories_segments":[],"categories_sizes":[],"default_left":[0,0,0,0,0,0,0,0,0,0,0,0,0,0,0,0,0,0,0,0,0,0,0,0,0,0,0,0,0,0,0,0,0,0,0,0,0,0,0,0,0,0,0,0,0,0,0,0,0,0,0,0,0,0,0],"id":0,"left_children":[1,3,5,7,9,11,13,-1,15,17,19,21,23,25,-1,-1,27,-1,29,31,33,35,37,-1,-1,-1,-1,-1,-1,-1,-1,-1,39,-1,41,-1,-1,-1,-1,-1,43,-1,45,-1,-1,47,49,51,53,-1,-1,-1,-1,-1,-1],"loss_changes":[3.1016537E1,4.7221823E0,4.124485E0,1.832941E0,2.1376832E0,1.0400879E0,3.752098E-1,0E0,4.856205E-1,1.3984513E-1,9.1702E-1,1.7147484E-1,6.007719E-2,2.3079109E-1,0E0,0E0,3.3011436E-3,0E0,4.0525198E-2,2.3897463E-1,2.4283786E-1,5.270319E-2,3.6998093E-2,0E0,0E0,0E0,0E0,0E0,0E0,0E0,0E0,0E0,1.0739732E-1,0E0,2.04474E-1,0E0,0E0,0E0,0E0,0E0,3.3596158E-3,0E0,2.092857E-1,0E0,0E0,2.88028E-2,1.0704517E-2,2.6042294E-3,1.6256366E-3,0E0,0E0,0E0,0E0,0E0,0E0],"parents":[2147483647,0,0,1,1,2,2,3,3,4,4,5,5,6,6,8,8,9,9,10,10,11,11,12,12,13,13,16,16,18,18,19,19,20,20,21,21,22,22,32,32,34,34,40,40,42,42,45,45,46,46,47,47,48,48],"right_children":[2,4,6,8,10,12,14,-1,16,18,20,22,24,26,-1,-1,28,-1,30,32,34,36,38,-1,-1,-1,-1,-1,-1,-1,-1,-1,40,-1,42,-1,-1,-1,-1,-1,44,-1,46,-1,-1,48,50,52,54,-1,-1,-1,-1,-1,-1],"split_conditions":[5.832E-1,2.533E-1,7.533E-1,6.2E1,2.440547E3,2.66789E3,8.563E-1,2.2039635E-2,1.313E-1,5.409E-1,3.95E-1,6.573E-1,6.212E-1,2.683406E3,7.744563E-2,-5.9796512E-2,2.163E-1,-2.1764195E-2,2.394734E3,7.2E1,3.2E1,3.7E1,7.737E-1,2.765001E-2,4.0660344E-2,2.8199486E-2,6.059351E-2,-4.3197513E-2,-3.3862688E-2,-4.9225237E-2,-2.9673517E-2,7.33749E-3,3.242E-1,3.0145425E-2,2.556593E3,5.819119E-3,-8.934208E-3,2.0434853E-2,6.8292567E-3,-2.5801133E-2,3.65E-1,-1.1509823E-2,5.028E-1,-1.4572046E-2,-9.471585E-3,4.36E-1,5.352E-1,3.074532E3,4.603E-1,1.2382376E-2,2.0217078E-2,-1.9576405E-3,-5.7159793E-3,2.6505336E-3,5.5169254E-3],"split_indices":[3,3,3,0,4,4,3,0,3,2,3,3,3,4,0,0,3,0,4,0,0,0,2,0,0,0,0,0,0,0,0,0,3,0,4,0,0,0,0,0,3,0,3,0,0,3,3,4,3,0,0,0,0,0,0],"split_type":[0,0,0,0,0,0,0,0,0,0,0,0,0,0,0,0,0,0,0,0,0,0,0,0,0,0,0,0,0,0,0,0,0,0,0,0,0,0,0,0,0,0,0,0,0,0,0,0,0,0,0,0,0,0,0],"sum_hessian":[7.14E2,4.48E2,2.66E2,1.92E2,2.56E2,1.37E2,1.29E2,1E1,1.82E2,5.4E1,2.02E2,5.4E1,8.3E1,6.3E1,6.6E1,8.4E1,9.8E1,1.2E1,4.2E1,8.5E1,1.17E2,2.6E1,2.8E1,2.5E1,5.8E1,1E1,5.3E1,7.1E1,2.7E1,3.2E1,1E1,1E1,7.5E1,1E1,1.07E2,1.1E1,1.5E1,1.8E1,1E1,3.9E1,3.6E1,1.9E1,8.8E1,1.9E1,1.7E1,5.2E1,3.6E1,2.3E1,2.9E1,1.7E1,1.9E1,1.2E1,1.1E1,1.8E1,1.1E1],"tree_param":{"num_deleted":"0","num_feature":"5","num_nodes":"55","size_leaf_vector":"1"}},{"base_weights":[3.198136E-3,-1.4082389E-1,1.9962426E-1,-2.2594585E-1,-7.2339475E-2,1.00377925E-1,3.084452E-1,3.4803988E-3,-2.4016012E-1,-2.0442727E-1,-3.2087624E-2,-1.5248059E-2,1.6219035E-1,1.5087718E-1,3.369139E-1,-5.3498384E-2,-2.1217379E-1,9.828049E-4,-4.2366028E-2,2.9901326E-2,-4.5579E-2,2.5762178E-2,-1.7717708E-2,1.963735E-2,3.2383572E-2,1.7066335E-2,3.2171495E-2,2.769316E-1,6.4678244E-2,-3.7252165E-2,-2.7896851E-2,-9.959324E-2,2.9400918E-3,5.5536803E-2,-8.115563E-3,3.1285997E-2,4.9008917E-2,-2.2727428E-2,-7.5416684E-2,-1.2852993E-2,1.3834373E-2,1.7737305E-2,3.962089E-3,-8.225618E-2,-7.874411E-3,-7.992675E-3,9.565429E-3,-1.5613506E-2,-9.8823905E-3,-2.3898767E-2,1.4485049E-2,-6.4732074E-3,-2.2120054E-3,2.9325122E-3,1.7284802E-3],"categories":[],"categories_nodes":[],"categories_segments":[],"categories_sizes":[],"default_left":[0,0,0,0,0,0,0,0,0,0,0,0,0,0,0,0,0,0,0,0,0,0,0,0,0,0,0,0,0,0,0,0,0,0,0,0,0,0,0,0,0,0,0,0,0,0,0,0,0,0,0,0,0,0,0],"id":1,"left_children":[1,3,5,7,9,11,13,-1,15,17,19,21,23,25,27,-1,29,-1,-1,-1,31,33,-1,-1,-1,-1,-1,35,-1,-1,-1,37,39,41,-1,-1,-1,-1,43,-1,45,-1,-1,47,-1,49,-1,-1,-1,51,53,-1,-1,-1,-1],"loss_changes":[2.0396688E1,2.408739E0,3.2630625E0,6.536503E-1,1.226933E0,1.1531599E0,5.996027E-1,0E0,3.1685448E-1,5.456662E-1,5.157263E-1,2.1377161E-1,1.2321353E-1,2.8660655E-2,2.470522E-1,0E0,2.2141457E-2,0E0,0E0,0E0,4.431948E-1,9.093925E-2,0E0,0E0,0E0,0E0,0E0,2.4339199E-2,0E0,0E0,0E0,5.8996797E-2,7.9006165E-2,4.392121E-2,0E0,0E0,0E0,0E0,5.892664E-3,0E0,7.578788E-2,0E0,0E0,4.3281913E-3,0E0,1.9652946E-2,0E0,0E0,0E0,4.5219027E-3,1.0753097E-4,0E0,0E0,0E0,0E0],"parents":[2147483647,0,0,1,1,2,2,3,3,4,4,5,5,6,6,8,8,9,9,10,10,11,11,12,12,13,13,14,14,16,16,20,20,21,21,27,27,31,31,32,32,33,33,38,38,40,40,43,43,45,45,49,49,50,50],"right_children":[2,4,6,8,10,12,14,-1,16,18,20,22,24,26,28,-1,30,-1,-1,-1,32,34,-1,-1,-1,-1,-1,36,-1,-1,-1,38,40,42,-1,-1,-1,-1,44,-1,46,-1,-1,48,-1,50,-1,-1,-1,52,54,-1,-1,-1,-1],"split_conditions":[5.352E-1,2.533E-1,7.271E-1,7.2E1,2.440547E3,2.593531E3,2.683406E3,3.4803988E-3,9.27E-2,6E1,3.7E1,5.5E1,6.118E-1,2.536172E3,8.356E-1,-5.3498384E-2,2.222E-1,9.828049E-4,-4.2366028E-2,2.9901326E-2,3.95E-1,8.449E-1,-1.7717708E-2,1.963735E-2,3.2383572E-2,1.7066335E-2,3.2171495E-2,2.8E1,6.4678244E-2,-3.7252165E-2,-2.7896851E-2,3.095E-1,2.485766E3,4.329E-1,-8.115563E-3,3.1285997E-2,4.9008917E-2,-2.2727428E-2,7.459E-1,-1.2852993E-2,4.72E-1,1.7737305E-2,3.962089E-3,3.694E-1,-7.874411E-3,4.403E-1,9.565429E-3,-1.5613506E-2,-9.8823905E-3,4.137E-1,8.5E1,-6.4732074E-3,-2.2120054E-3,2.9325122E-3,1.7284802E-3],"split_indices":[3,3,3,0,4,4,4,0,3,0,0,0,3,4,3,0,3,0,0,0,3,2,0,0,0,0,0,0,0,0,0,3,4,1,0,0,0,0,2,0,3,0,0,3,0,3,0,0,0,3,0,0,0,0,0],"split_type":[0,0,0,0,0,0,0,0,0,0,0,0,0,0,0,0,0,0,0,0,0,0,0,0,0,0,0,0,0,0,0,0,0,0,0,0,0,0,0,0,0,0,0,0,0,0,0,0,0,0,0,0,0,0,0],"sum_hessian":[7.19E2,4.15E2,3.04E2,1.84E2,2.31E2,1.6E2,1.44E2,1E1,1.74E2,5.3E1,1.78E2,5.6E1,1.04E2,2.3E1,1.21E2,4.3E1,1.31E2,1E1,4.3E1,1E1,1.68E2,3.9E1,1.7E1,4.4E1,6E1,1.2E1,1.1E1,5.7E1,6.4E1,1.05E2,2.6E1,7.9E1,8.9E1,2.8E1,1.1E1,1E1,4.7E1,3E1,4.9E1,1E1,7.9E1,1E1,1.8E1,3.8E1,1.1E1,5.3E1,2.6E1,2.4E1,1.4E1,3.1E1,2.2E1,1.2E1,1.9E1,1.1E1,1.1E1],"tree_param":{"num_deleted":"0","num_feature":"5","num_nodes":"55","size_leaf_vector":"1"}},{"base_weights":[-3.9622886E-3,-1.2761007E-1,1.7299561E-1,5.443144E-2,-1.4989737E-1,8.10435E-2,2.6959008E-1,3.1963035E-2,-4.8959116E-3,-2.183761E-1,-7.3994696E-2,-1.0175765E-2,1.3706149E-1,2.3533209E-1,5.744917E-2,4.34064E-2,-1.5620382E-2,-4.385664E-2,-1.9475786E-1,-1.3532375E-1,-1.3206345E-2,1.1704824E-2,-4.2271964E-2,1.6420202E-2,2.789104E-2,2.5177318E-1,1.3584382E-2,2.5487733E-3,1.1794086E-2,-2.0743719E-1,-2.7949505E-2,-1.5042886E-1,-1.6054163E-2,-3.8560793E-2,2.5896458E-2,-9.998067E-3,-1.422798E-2,2.9641202E-2,4.3492176E-2,-3.6129314E-2,-2.5633167E-2,-2.6825259E-2,-1.9062944E-2,-4.6061847E-2,-2.6000652E-3,1.6511303E-3,7.2642313E-3,-6.8406006E-3,2.2188982E-3,-5.2934315E-2,-5.1407423E-3,-1.1039926E-2,-6.9709686E-3],"categories":[],"categories_nodes":[],"categories_segments":[],"categories_sizes":[],"default_left":[0,0,0,0,0,0,0,0,0,0,0,0,0,0,0,0,0,0,0,0,0,0,0,0,0,0,0,0,0,0,0,0,0,0,0,0,0,0,0,0,0,0,0,0,0,0,0,0,0,0,0,0,0],"id":2,"left_children":[1,3,5,7,9,11,13,-1,15,17,19,21,23,25,-1,27,-1,-1,29,31,33,-1,35,-1,-1,37,-1,-1,-1,39,-1,41,-1,43,45,47,-1,-1,-1,-1,-1,-1,-1,49,-1,-1,-1,-1,-1,51,-1,-1,-1],"loss_changes":[1.5425915E1,1.6919026E0,2.5539503E0,3.7196147E-1,1.9069967E0,7.678827E-1,2.7017403E-1,0E0,1.4454165E-1,1.454792E-1,6.580852E-1,1.516782E-1,8.987951E-2,2.3096752E-1,0E0,1.5602466E-2,0E0,0E0,1.1717796E-2,3.8383245E-2,9.0227276E-2,0E0,5.6729607E-2,0E0,0E0,3.0374527E-3,0E0,0E0,0E0,3.284216E-3,0E0,3.247738E-3,0E0,8.805841E-3,9.619603E-3,1.8383598E-2,0E0,0E0,0E0,0E0,0E0,0E0,0E0,2.730012E-3,0E0,0E0,0E0,0E0,0E0,1.2211055E-3,0E0,0E0,0E0],"parents":[2147483647,0,0,1,1,2,2,3,3,4,4,5,5,6,6,8,8,9,9,10,10,11,11,12,12,13,13,15,15,18,18,19,19,20,20,22,22,25,25,29,29,31,31,33,33,34,34,35,35,43,43,49,49],"right_children":[2,4,6,8,10,12,14,-1,16,18,20,22,24,26,-1,28,-1,-1,30,32,34,-1,36,-1,-1,38,-1,-1,-1,40,-1,42,-1,44,46,48,-1,-1,-1,-1,-1,-1,-1,50,-1,-1,-1,-1,-1,52,-1,-1,-1],"split_conditions":[5.32E-1,6E1,7.271E-1,2.9E1,2.954797E3,2.66789E3,8.908E-1,3.1963035E-2,4.564E-1,1.089E-1,3.309E-1,6.434E-1,6.192E-1,7.677E-1,5.744917E-2,3.9E1,-1.5620382E-2,-4.385664E-2,2.896063E3,2.774E-1,4.36E-1,1.1704824E-2,7.991E-1,1.6420202E-2,2.789104E-2,1.7E1,1.3584382E-2,2.5487733E-3,1.1794086E-2,4.666E-1,-2.7949505E-2,1.41E2,-1.6054163E-2,4.095E-1,4.72E-1,2.442547E3,-1.422798E-2,2.9641202E-2,4.3492176E-2,-3.6129314E-2,-2.5633167E-2,-2.6825259E-2,-1.9062944E-2,6.695E-1,-2.6000652E-3,1.6511303E-3,7.2642313E-3,-6.8406006E-3,2.2188982E-3,3.715E-1,-5.1407423E-3,-1.1039926E-2,-6.9709686E-3],"split_indices":[3,0,3,0,4,4,3,0,2,3,3,2,3,2,0,0,0,0,4,3,3,0,2,0,0,0,0,0,0,3,0,0,0,3,3,4,0,0,0,0,0,0,0,2,0,0,0,0,0,3,0,0,0],"split_type":[0,0,0,0,0,0,0,0,0,0,0,0,0,0,0,0,0,0,0,0,0,0,0,0,0,0,0,0,0,0,0,0,0,0,0,0,0,0,0,0,0,0,0,0,0,0,0,0,0,0,0,0,0],"sum_hessian":[7.03E2,4.14E2,2.89E2,4.5E1,3.69E2,1.49E2,1.4E2,1.3E1,3.2E1,1.93E2,1.76E2,5.7E1,9.2E1,9.8E1,4.2E1,2.1E1,1.1E1,6.5E1,1.28E2,8.7E1,8.9E1,1.6E1,4.1E1,4.1E1,5.1E1,8.8E1,1E1,1.1E1,1E1,8.4E1,4.4E1,6.1E1,2.6E1,5.4E1,3.5E1,2.4E1,1.7E1,1E1,7.8E1,7.1E1,1.3E1,4.6E1,1.5E1,4E1,1.4E1,1.9E1,1.6E1,1E1,1.4E1,2.6E1,1.4E1,1E1,1.6E1],"tree_param":{"num_deleted":"0","num_feature":"5","num_nodes":"53","size_leaf_vector":"1"}},{"base_weights":[4.9269623E-3,-8.6359315E-2,1.6210362E-1,-1.5513493E-1,-3.4236666E-2,9.043896E-2,2.2725901E-1,1.649346E-2,-1.7561543E-1,2.98315E-2,-4.635542E-2,7.553914E-3,1.2935482E-1,1.4136621E-1,2.4549496E-1,-3.7908383E-2,-1.5133952E-1,-1.4883125E-1,-1.7526079E-2,1.636981E-2,-2.4608279E-2,1.2771735E-2,1.406072E-1,3.2128923E-2,1.5434517E-2,3.6164984E-2,4.7967877E-2,-2.6417876E-2,-1.8883986E-2,-1.1447885E-1,-3.429533E-2,-6.637498E-2,2.3506425E-2,-8.917093E-3,2.316822E-3,2.4646383E-2,1.5878735E-2,-9.031771E-2,-2.6690919E-2,-8.3248645E-2,-3.8927004E-2,5.5544344E-3,5.5863965E-2,-5.3448714E-3,-2.2495445E-2,-1.7006103E-2,-7.018397E-2,-7.59108E-3,-5.2466155E-3,1.4755612E-2,-7.297257E-3,4.747465E-3,1.0918168E-2,-7.98915E-2,-7.677246E-3,6.4987126E-3,3.8794584E-3,-9.682018E-3,-1.6025433E-2,-2.938732E-3,1.826533E-2,1.4288331E-3,4.2511327E-3],"categories":[],"categories_nodes":[],"categories_segments":[],"categories_sizes":[],"default_left":[0,0,0,0,0,0,0,0,0,0,0,0,0,0,0,0,0,0,0,0,0,0,0,0,0,0,0,0,0,0,0,0,0,0,0,0,0,0,0,0,0,0,0,0,0,0,0,0,0,0,0,0,0,0,0,0,0,0,0,0,0,0,0],"id":3,"left_children":[1,3,5,7,9,11,13,-1,15,-1,17,19,21,23,25,-1,27,29,31,-1,33,-1,35,-1,-1,-1,-1,-1,-1,37,-1,39,41,-1,-1,-1,-1,43,-1,45,47,49,51,-1,-1,-1,53,-1,-1,55,-1,-1,-1,57,-1,-1,59,-1,-1,-1,61,-1,-1],"loss_changes":[1.0115042E1,1.5934949E0,1.188806E0,1.013598E0,6.631505E-1,4.022156E-1,1.7675066E-1,0E0,1.8267965E-1,0E0,7.1233463E-1,1.2101491E-1,4.0263653E-2,4.667723E-2,7.154322E-2,0E0,1.1060715E-2,7.7566504E-2,3.8239482E-1,0E0,3.4673918E-2,0E0,5.798459E-3,0E0,0E0,0E0,0E0,0E0,0E0,2.3275793E-2,0E0,3.7053287E-2,6.0101464E-2,0E0,0E0,0E0,0E0,5.9588984E-2,0E0,5.3872466E-3,2.7647987E-4,3.1312354E-2,7.5202435E-3,0E0,0E0,0E0,4.418075E-3,0E0,0E0,1.496023E-2,0E0,0E0,0E0,2.4491996E-3,0E0,0E0,1.2932387E-2,0E0,0E0,0E0,1.5052846E-3,0E0,0E0],"parents":[2147483647,0,0,1,1,2,2,3,3,4,4,5,5,6,6,8,8,10,10,11,11,12,12,13,13,14,14,16,16,17,17,18,18,20,20,22,22,29,29,31,31,32,32,37,37,39,39,40,40,41,41,42,42,46,46,49,49,53,53,56,56,60,60],"right_children":[2,4,6,8,10,12,14,-1,16,-1,18,20,22,24,26,-1,28,30,32,-1,34,-1,36,-1,-1,-1,-1,-1,-1,38,-1,40,42,-1,-1,-1,-1,44,-1,46,48,50,52,-1,-1,-1,54,-1,-1,56,-1,-1,-1,58,-1,-1,60,-1,-1,-1,62,-1,-1],"split_conditions":[5.832E-1,2.533E-1,7.386E-1,7.2E1,2.5E1,2.556593E3,5.332E-1,1.649346E-2,9.27E-2,2.98315E-2,2.459297E3,6.75E-1,6.118E-1,2.954E-1,8.653E-1,-3.7908383E-2,2.222E-1,8.3E1,3.982E-1,1.636981E-2,3.777E-1,1.2771735E-2,7.9E1,3.2128923E-2,1.5434517E-2,3.6164984E-2,4.7967877E-2,-2.6417876E-2,-1.8883986E-2,5.274E-1,-3.429533E-2,3.395E-1,5.115E-1,-8.917093E-3,2.316822E-3,2.4646383E-2,1.5878735E-2,7.81E-1,-2.6690919E-2,2.816E-1,3.715E-1,6.151E-1,5E1,-5.3448714E-3,-2.2495445E-2,-1.7006103E-2,1.14E2,-7.59108E-3,-5.2466155E-3,8.1E1,-7.297257E-3,4.747465E-3,1.0918168E-2,3.02214E3,-7.677246E-3,6.4987126E-3,4.36E-1,-9.682018E-3,-1.6025433E-2,-2.938732E-3,3.031953E3,1.4288331E-3,4.2511327E-3],"split_indices":[3,3,3,0,0,4,1,0,3,0,4,2,3,1,3,0,3,0,3,0,1,0,0,0,0,0,0,0,0,1,0,3,3,0,0,0,0,2,0,3,3,1,0,0,0,0,0,0,0,0,0,0,0,4,0,0,3,0,0,0,4,0,0],"split_type":[0,0,0,0,0,0,0,0,0,0,0,0,0,0,0,0,0,0,0,0,0,0,0,0,0,0,0,0,0,0,0,0,0,0,0,0,0,0,0,0,0,0,0,0,0,0,0,0,0,0,0,0,0,0,0,0,0,0,0,0,0,0,0],"sum_hessian":[7.03E2,4.45E2,2.58E2,1.91E2,2.54E2,1.24E2,1.34E2,1.4E1,1.77E2,1.3E1,2.41E2,4E1,8.4E1,2.5E1,1.09E2,5.5E1,1.22E2,5.2E1,1.89E2,1E1,3E1,1.6E1,6.8E1,1.1E1,1.4E1,6.6E1,4.3E1,1.03E2,1.9E1,3.4E1,1.8E1,8.6E1,1.03E2,1.7E1,1.3E1,5.8E1,1E1,2.4E1,1E1,5.2E1,3.4E1,6.7E1,3.6E1,1.1E1,1.3E1,1.9E1,3.3E1,1.6E1,1.8E1,5.7E1,1E1,1E1,2.6E1,2.2E1,1.1E1,1.7E1,4E1,1.1E1,1.1E1,1.6E1,2.4E1,1.1E1,1.3E1],"tree_param":{"num_deleted":"0","num_feature":"5","num_nodes":"63","size_leaf_vector":"1"}},{"base_weights":[4.2029745E-3,-8.009653E-2,1.227092E-1,2.6937094E-2,-8.9875035E-2,6.2513486E-2,1.861651E-1,-1.3505146E-1,-4.4481628E-2,1.6546723E-3,9.5313296E-2,8.799235E-2,2.0366494E-1,-2.5115209E-3,-1.4377567E-1,-1.2976322E-1,-1.8456483E-2,9.728343E-3,-2.2310713E-2,6.179779E-2,1.1116226E-1,1.9306893E-2,7.658703E-3,1.7241336E-1,4.0248185E-2,-1.7634372E-1,-1.1106983E-1,-9.076629E-2,-2.5917498E-2,-5.0891884E-2,8.291306E-3,-4.240172E-2,5.7939095E-3,1.1865611E-2,7.5962935E-3,1.6779797E-2,2.5336884E-2,2.0178836E-2,3.007043E-2,-3.3687286E-2,-2.6491102E-2,-1.17310554E-1,-9.301384E-2,-7.873931E-3,-2.1217361E-2,-6.8683736E-2,-3.494131E-2,-8.356319E-3,2.1110628E-2,-2.520711E-3,-1.0984231E-2,-1.02512024E-1,-2.5777835E-2,-1.844259E-2,-1.198937E-2,-9.498469E-3,-1.4732467E-2,-4.2134836E-2,-3.997072E-3,2.2118404E-3,-1.6235122E-2,-1.1042871E-3,2.8197136E-2,-2.0677468E-2,-1.5245741E-2,-4.5104763E-3,-9.460122E-3,-1.7632092E-3,-3.7745233E-3,3.1222708E-3,6.043314E-3],"categories":[],"categories_nodes":[],"categories_segments":[],"categories_sizes":[],"default_left":[0,0,0,0,0,0,0,0,0,0,0,0,0,0,0,0,0,0,0,0,0,0,0,0,0,0,0,0,0,0,0,0,0,0,0,0,0,0,0,0,0,0,0,0,0,0,0,0,0,0,0,0,0,0,0,0,0,0,0,0,0,0,0,0,0,0,0,0,0,0,0],"id":4,"left_children":[1,3,5,-1,7,9,11,13,15,17,19,21,23,-1,25,27,29,-1,31,33,35,-1,-1,37,-1,39,41,43,-1,45,47,49,-1,-1,-1,-1,-1,-1,-1,-1,-1,51,53,-1,-1,55,57,59,61,-1,-1,63,-1,-1,-1,-1,-1,65,-1,-1,67,-1,69,-1,-1,-1,-1,-1,-1,-1,-1],"loss_changes":[7.2825594E0,1.0164509E0,1.1457534E0,0E0,8.347845E-1,3.1323898E-1,2.346263E-1,2.1262884E-1,4.548149E-1,7.68399E-2,4.7311366E-2,2.2220418E-2,9.845114E-2,0E0,1.838603E-1,3.2060325E-2,1.3836645E-1,0E0,4.7127698E-2,1.9456148E-3,1.5232086E-2,0E0,0E0,2.961874E-3,0E0,1.0733604E-2,1.3136864E-4,2.687949E-2,0E0,1.8032998E-2,1.8956598E-2,1.793569E-2,0E0,0E0,0E0,0E0,0E0,0E0,0E0,0E0,0E0,2.1258414E-2,3.0663013E-3,0E0,0E0,2.653733E-3,2.200231E-3,6.829813E-3,9.996129E-3,0E0,0E0,1.3818145E-3,0E0,0E0,0E0,0E0,0E0,3.4776665E-3,0E0,0E0,8.025286E-4,0E0,2.3254268E-3,0E0,0E0,0E0,0E0,0E0,0E0,0E0,0E0],"parents":[2147483647,0,0,1,1,2,2,4,4,5,5,6,6,7,7,8,8,9,9,10,10,11,11,12,12,14,14,15,15,16,16,18,18,19,19,20,20,23,23,25,25,26,26,27,27,29,29,30,30,31,31,41,41,42,42,45,45,46,46,47,47,48,48,51,51,57,57,60,60,62,62],"right_children":[2,4,6,-1,8,10,12,14,16,18,20,22,24,-1,26,28,30,-1,32,34,36,-1,-1,38,-1,40,42,44,-1,46,48,50,-1,-1,-1,-1,-1,-1,-1,-1,-1,52,54,-1,-1,56,58,60,62,-1,-1,64,-1,-1,-1,-1,-1,66,-1,-1,68,-1,70,-1,-1,-1,-1,-1,-1,-1,-1],"split_conditions":[5.32E-1,3.2E1,7.271E-1,2.6937094E-2,2.816E-1,2.66789E3,2.683406E3,8E1,2.467328E3,2.6E1,5.911E-1,7.873E-1,8.563E-1,-2.5115209E-3,1.526E-1,4.239E-1,3.918E-1,9.728343E-3,6.573E-1,7.4E1,7.051E-1,1.9306893E-2,7.658703E-3,7.502E-1,4.0248185E-2,6.18E-2,6.235E-1,7.4E1,-2.5917498E-2,3.357E-1,4.499E-1,5.964E-1,5.7939095E-3,1.1865611E-2,7.5962935E-3,1.6779797E-2,2.5336884E-2,2.0178836E-2,3.007043E-2,-3.3687286E-2,-2.6491102E-2,2.979219E3,1.17E2,-7.873931E-3,-2.1217361E-2,3.034968E3,6.695E-1,3.665E-1,3.028828E3,-2.520711E-3,-1.0984231E-2,1.741E-1,-2.5777835E-2,-1.844259E-2,-1.198937E-2,-9.498469E-3,-1.4732467E-2,3.039218E3,-3.997072E-3,2.2118404E-3,4.966E-1,-1.1042871E-3,4.877E-1,-2.0677468E-2,-1.5245741E-2,-4.5104763E-3,-9.460122E-3,-1.7632092E-3,-3.7745233E-3,3.1222708E-3,6.043314E-3],"split_indices":[3,0,3,0,3,4,4,0,4,0,3,2,3,0,3,3,3,0,3,0,3,0,0,3,0,3,1,0,0,3,3,3,0,0,0,0,0,0,0,0,0,4,0,0,0,4,2,1,4,0,0,3,0,0,0,0,0,4,0,0,1,0,3,0,0,0,0,0,0,0,0],"split_type":[0,0,0,0,0,0,0,0,0,0,0,0,0,0,0,0,0,0,0,0,0,0,0,0,0,0,0,0,0,0,0,0,0,0,0,0,0,0,0,0,0,0,0,0,0,0,0,0,0,0,0,0,0,0,0,0,0,0,0,0,0,0,0,0,0,0,0,0,0,0,0],"sum_hessian":[7.27E2,4.25E2,3.02E2,1.6E1,4.09E2,1.56E2,1.46E2,2.04E2,2.05E2,5.5E1,1.01E2,2.3E1,1.23E2,1.4E1,1.9E2,4.7E1,1.58E2,1.6E1,3.9E1,3.4E1,6.7E1,1.3E1,1E1,6.9E1,5.4E1,9.3E1,9.7E1,2E1,2.7E1,7.1E1,8.7E1,2.9E1,1E1,2E1,1.4E1,5.5E1,1.2E1,1E1,5.9E1,3.6E1,5.7E1,6.8E1,2.9E1,1E1,1E1,3.2E1,3.9E1,3.8E1,4.9E1,1.4E1,1.5E1,5.1E1,1.7E1,1.4E1,1.5E1,2.2E1,1E1,2.2E1,1.7E1,1E1,2.8E1,1E1,3.9E1,1.5E1,3.6E1,1.2E1,1E1,1.6E1,1.2E1,1.9E1,2E1],"tree_param":{"num_deleted":"0","num_feature":"5","num_nodes":"71","size_leaf_vector":"1"}},{"base_weights":[1.8903627E-3,-6.300921E-2,1.1262275E-1,-1.0925062E-1,-2.6560472E-2,6.48577E-2,1.6097757E-1,2.7162218E-3,-1.1725765E-1,-1.06839456E-1,-4.786431E-3,9.237907E-3,9.020252E-2,9.029422E-2,1.7571248E-1,-2.5541283E-2,-9.564437E-2,-6.1744447E-3,-1.3721497E-1,1.7320855E-2,-1.1474007E-2,1.114626E-2,-9.524904E-3,7.754627E-2,2.0200074E-2,2.1287225E-2,7.864782E-3,2.6195915E-2,3.6016304E-2,-1.706565E-2,-7.329128E-2,-3.324387E-2,-1.0842843E-1,-3.4105323E-2,1.3741952E-2,-4.0444173E-2,6.3014533E-3,1.6729552E-2,6.95613E-2,-1.3624627E-2,-8.9057E-3,-1.1273934E-2,-2.1426937E-2,-1.0426818E-2,-2.5628548E-2,-8.381413E-3,2.5809139E-2,-7.928574E-3,-5.0340933E-3,6.5595135E-3,1.2984628E-2,-3.1107318E-2,-8.4430206E-4,8.993676E-3,4.2393994E-2,-3.8979623E-2,-2.412032E-2,7.545501E-4,3.0320638E-3,5.0067795E-3,9.301452E-3,-4.2257286E-3,-7.597311E-3,-5.9228227E-3,-1.8471612E-2,-8.290971E-4,9.922481E-4,-1.3833782E-3,-4.9898406E-3],"categories":[],"categories_nodes":[],"categories_segments":[],"categories_sizes":[],"default_left":[0,0,0,0,0,0,0,0,0,0,0,0,0,0,0,0,0,0,0,0,0,0,0,0,0,0,0,0,0,0,0,0,0,0,0,0,0,0,0,0,0,0,0,0,0,0,0,0,0,0,0,0,0,0,0,0,0,0,0,0,0,0,0,0,0,0,0,0,0],"id":5,"left_children":[1,3,5,7,9,11,13,-1,15,17,19,21,23,25,27,-1,29,-1,31,-1,33,-1,35,37,-1,-1,-1,-1,-1,-1,39,-1,41,43,45,47,-1,-1,49,-1,-1,-1,-1,-1,51,-1,53,-1,-1,-1,-1,55,-1,57,59,61,63,65,-1,-1,-1,-1,-1,-1,67,-1,-1,-1,-1],"loss_changes":[5.231671E0,7.707156E-1,6.108608E-1,2.0476961E-1,4.5047212E-1,1.9229198E-1,1.2265539E-1,0E0,1.2867594E-1,1.1200225E-1,1.4846632E-1,4.7816917E-2,2.650112E-2,3.3708796E-2,4.978347E-2,0E0,8.661389E-3,0E0,4.50387E-2,0E0,1.10608056E-1,0E0,5.098933E-2,5.2460134E-3,0E0,0E0,0E0,0E0,0E0,0E0,3.1156838E-4,0E0,1.36194825E-2,2.2619337E-2,7.196872E-2,7.3477626E-5,0E0,0E0,9.789318E-3,0E0,0E0,0E0,0E0,0E0,8.872353E-3,0E0,2.1371517E-2,0E0,0E0,0E0,0E0,2.5250353E-3,0E0,2.9744362E-3,4.7261342E-3,1.2866519E-3,1.6175043E-3,6.749268E-4,0E0,0E0,0E0,0E0,0E0,0E0,2.7478728E-3,0E0,0E0,0E0,0E0],"parents":[2147483647,0,0,1,1,2,2,3,3,4,4,5,5,6,6,8,8,9,9,10,10,11,11,12,12,13,13,14,14,16,16,18,18,20,20,22,22,23,23,30,30,32,32,33,33,34,34,35,35,38,38,44,44,46,46,51,51,53,53,54,54,55,55,56,56,57,57,64,64],"right_children":[2,4,6,8,10,12,14,-1,16,18,20,22,24,26,28,-1,30,-1,32,-1,34,-1,36,38,-1,-1,-1,-1,-1,-1,40,-1,42,44,46,48,-1,-1,50,-1,-1,-1,-1,-1,52,-1,54,-1,-1,-1,-1,56,-1,58,60,62,64,66,-1,-1,-1,-1,-1,-1,68,-1,-1,-1,-1],"split_conditions":[5.832E-1,2.66E-1,7.502E-1,7.2E1,2.420671E3,2.593531E3,5.379E-1,2.7162218E-3,1.245E-1,6.332E-1,3.3E1,2.8E1,7.051E-1,3.907E-1,3.358719E3,-2.5541283E-2,2.277E-1,-6.1744447E-3,1.03E-1,1.7320855E-2,4.289E-1,1.114626E-2,6.705E-1,5.466E-1,2.0200074E-2,2.1287225E-2,7.864782E-3,2.6195915E-2,3.6016304E-2,-1.706565E-2,5.728E-1,-3.324387E-2,7.3E1,3.095E-1,2.521985E3,4.9E1,6.3014533E-3,1.6729552E-2,3.2E1,-1.3624627E-2,-8.9057E-3,-1.1273934E-2,-2.1426937E-2,-1.0426818E-2,7.254E-1,-8.381413E-3,4.877E-1,-7.928574E-3,-5.0340933E-3,6.5595135E-3,1.2984628E-2,3.694E-1,-8.4430206E-4,4.919E-1,4.738E-1,3.309E-1,2.996922E3,1.12E2,3.0320638E-3,5.0067795E-3,9.301452E-3,-4.2257286E-3,-7.597311E-3,-5.9228227E-3,3.069E3,-8.290971E-4,9.922481E-4,-1.3833782E-3,-4.9898406E-3],"split_indices":[3,3,3,0,4,4,1,0,3,2,0,0,3,1,4,0,3,0,1,0,3,0,3,1,0,0,0,0,0,0,1,0,0,3,4,0,0,0,0,0,0,0,0,0,2,0,3,0,0,0,0,3,0,2,2,3,4,0,0,0,0,0,0,0,4,0,0,0,0],"split_type":[0,0,0,0,0,0,0,0,0,0,0,0,0,0,0,0,0,0,0,0,0,0,0,0,0,0,0,0,0,0,0,0,0,0,0,0,0,0,0,0,0,0,0,0,0,0,0,0,0,0,0,0,0,0,0,0,0,0,0,0,0,0,0,0,0,0,0,0,0],"sum_hessian":[7.26E2,4.58E2,2.68E2,2.01E2,2.57E2,1.36E2,1.32E2,1.2E1,1.89E2,5.4E1,2.03E2,4.3E1,9.3E1,2.4E1,1.08E2,7E1,1.19E2,1.7E1,3.7E1,1.1E1,1.92E2,1E1,3.3E1,6.8E1,2.5E1,1.2E1,1.2E1,7.5E1,3.3E1,9.1E1,2.8E1,1E1,2.7E1,1.01E2,9.1E1,2E1,1.3E1,1.5E1,5.3E1,1.8E1,1E1,1E1,1.7E1,2.2E1,7.9E1,1.4E1,7.7E1,1E1,1E1,1.2E1,4.1E1,6.2E1,1.7E1,3.9E1,3.8E1,2.7E1,3.5E1,2.1E1,1.8E1,2.1E1,1.7E1,1E1,1.7E1,1E1,2.5E1,1E1,1.1E1,1.4E1,1.1E1],"tree_param":{"num_deleted":"0","num_feature":"5","num_nodes":"69","size_leaf_vector":"1"}},{"base_weights":[2.438026E-3,-5.870338E-2,8.842893E-2,2.8124316E-2,-6.6738725E-2,5.007103E-2,1.3765816E-1,-1.0046757E-1,-3.0675795E-2,6.106066E-2,-6.2205875E-3,1.227934E-1,3.3585817E-2,-2.3839973E-2,-8.59128E-2,-5.721262E-2,2.9835044E-3,2.2695826E-2,5.4974217E-2,6.549218E-2,1.380229E-1,-8.895842E-3,-9.67741E-2,-6.61847E-2,-3.6183875E-2,-1.306257E-2,1.4960686E-2,1.2321711E-2,7.069923E-2,1.7877461E-2,3.267066E-3,1.8184349E-2,2.593437E-2,-5.6454563E-3,2.79427E-3,-8.314528E-2,-1.1539999E-1,-7.823102E-2,-4.430288E-2,-5.9149273E-2,-6.346546E-4,-6.4868676E-3,-3.8867448E-3,4.172205E-3,8.002271E-3,4.563269E-2,-7.7627944E-3,5.6076486E-2,1.7978337E-2,-1.7056787E-2,-6.1834153E-2,-1.4259272E-2,-1.2163661E-1,-1.5549845E-2,-9.461871E-3,-5.344472E-3,-9.448402E-3,-7.389161E-3,-1.1568635E-2,-1.8311172E-3,2.1869697E-5,-2.198027E-4,2.2924095E-3,1.1224969E-2,1.7806925E-3,4.2939164E-2,1.0277127E-2,-1.1570675E-2,-7.1752486E-3,-2.1673722E-2,-1.4578447E-2,5.1793386E-3,8.216552E-3],"categories":[],"categories_nodes":[],"categories_segments":[],"categories_sizes":[],"default_left":[0,0,0,0,0,0,0,0,0,0,0,0,0,0,0,0,0,0,0,0,0,0,0,0,0,0,0,0,0,0,0,0,0,0,0,0,0,0,0,0,0,0,0,0,0,0,0,0,0,0,0,0,0,0,0,0,0,0,0,0,0,0,0,0,0,0,0,0,0,0,0,0,0],"id":6,"left_children":[1,3,5,-1,7,9,11,13,15,17,-1,19,-1,-1,21,23,25,-1,27,29,31,33,35,37,39,41,43,45,47,-1,-1,-1,-1,-1,-1,49,51,53,55,57,-1,59,-1,-1,61,63,-1,65,-1,-1,67,-1,69,-1,-1,-1,-1,-1,-1,-1,-1,-1,-1,-1,-1,71,-1,-1,-1,-1,-1,-1,-1],"loss_changes":[3.8590155E0,7.910136E-1,5.690479E-1,0E0,5.017077E-1,1.6790259E-1,9.878945E-2,1.1716795E-1,1.8059932E-1,6.204748E-2,0E0,8.695412E-2,0E0,0E0,1.3381636E-1,1.8925011E-2,1.7492233E-2,0E0,9.571126E-2,4.5103885E-2,2.5307298E-2,1.382385E-2,2.6197672E-2,1.7094612E-2,2.65662E-2,2.437084E-3,3.3800239E-3,8.013827E-2,4.986465E-2,0E0,0E0,0E0,0E0,0E0,0E0,2.7143955E-2,4.988313E-4,1.0202944E-2,2.688229E-3,6.903708E-5,0E0,7.326318E-4,0E0,0E0,1.7021063E-3,1.862304E-2,0E0,2.56975E-3,0E0,0E0,2.7374178E-3,0E0,4.7534704E-4,0E0,0E0,0E0,0E0,0E0,0E0,0E0,0E0,0E0,0E0,0E0,0E0,3.0414388E-4,0E0,0E0,0E0,0E0,0E0,0E0,0E0],"parents":[2147483647,0,0,1,1,2,2,4,4,5,5,6,6,7,7,8,8,9,9,11,11,14,14,15,15,16,16,18,18,19,19,20,20,21,21,22,22,23,23,24,24,25,25,26,26,27,27,28,28,35,35,36,36,37,37,38,38,39,39,41,41,44,44,45,45,47,47,50,50,52,52,65,65],"right_children":[2,4,6,-1,8,10,12,14,16,18,-1,20,-1,-1,22,24,26,-1,28,30,32,34,36,38,40,42,44,46,48,-1,-1,-1,-1,-1,-1,50,52,54,56,58,-1,60,-1,-1,62,64,-1,66,-1,-1,68,-1,70,-1,-1,-1,-1,-1,-1,-1,-1,-1,-1,-1,-1,72,-1,-1,-1,-1,-1,-1,-1],"split_conditions":[5.32E-1,2.8E1,7.593E-1,2.8124316E-2,2.954797E3,8.097E-1,9.549E-1,1.232E-1,3.694E-1,1.5E1,-6.2205875E-3,5.759E-1,3.3585817E-2,-2.3839973E-2,5.5E1,7.484E-1,4.36E-1,2.2695826E-2,3.069E3,3.582E-1,8.156E-1,3.9E1,3.665E-1,3.011E-1,4.329E-1,3.069E3,8E1,5.759E-1,7.051E-1,1.7877461E-2,3.267066E-3,1.8184349E-2,2.593437E-2,-5.6454563E-3,2.79427E-3,1.712E-1,3.378E-1,6.235E-1,3.039218E3,1.13E2,-6.346546E-4,5.577E-1,-3.8867448E-3,4.172205E-3,9.3E1,7.568E-1,-7.7627944E-3,5.855E-1,1.7978337E-2,-1.7056787E-2,2.519E-1,-1.4259272E-2,6.84E-1,-1.5549845E-2,-9.461871E-3,-5.344472E-3,-9.448402E-3,-7.389161E-3,-1.1568635E-2,-1.8311172E-3,2.1869697E-5,-2.198027E-4,2.2924095E-3,1.1224969E-2,1.7806925E-3,3.149094E3,1.0277127E-2,-1.1570675E-2,-7.1752486E-3,-2.1673722E-2,-1.4578447E-2,5.1793386E-3,8.216552E-3],"split_indices":[3,0,3,0,4,2,3,1,3,0,0,1,0,0,0,2,3,0,4,1,3,0,1,3,1,4,0,1,3,0,0,0,0,0,0,3,2,1,4,0,0,2,0,0,0,2,0,3,0,0,3,0,2,0,0,0,0,0,0,0,0,0,0,0,0,4,0,0,0,0,0,0,0],"split_type":[0,0,0,0,0,0,0,0,0,0,0,0,0,0,0,0,0,0,0,0,0,0,0,0,0,0,0,0,0,0,0,0,0,0,0,0,0,0,0,0,0,0,0,0,0,0,0,0,0,0,0,0,0,0,0,0,0,0,0,0,0,0,0,0,0,0,0,0,0,0,0,0,0],"sum_hessian":[7.32E2,4.28E2,3.04E2,1.4E1,4.14E2,1.72E2,1.32E2,2.13E2,2.01E2,1.53E2,1.9E1,1.09E2,2.3E1,5.3E1,1.6E2,1.12E2,8.9E1,1E1,1.43E2,2.4E1,8.5E1,2E1,1.4E2,7.7E1,3.5E1,3.8E1,5.1E1,3.9E1,1.04E2,1.2E1,1.2E1,3.3E1,5.2E1,1E1,1E1,8.4E1,5.6E1,4.8E1,2.9E1,2E1,1.5E1,2.4E1,1.4E1,2E1,3.1E1,2.5E1,1.4E1,7.6E1,2.8E1,4.3E1,4.1E1,1.2E1,4.4E1,2.7E1,2.1E1,1.6E1,1.3E1,1E1,1E1,1.4E1,1E1,1.2E1,1.9E1,1.5E1,1E1,2.4E1,5.2E1,2.8E1,1.3E1,3.4E1,1E1,1E1,1.4E1],"tree_param":{"num_deleted":"0","num_feature":"5","num_nodes":"73","size_leaf_vector":"1"}},{"base_weights":[-2.9418662E-3,-4.3521643E-2,7.6893836E-2,3.282224E-2,-5.604686E-2,3.6094014E-3,9.586074E-2,1.8091137E-2,1.5659226E-3,-8.795586E-2,-1.9901443E-2,1.00227045E-2,-1.5179956E-2,7.4517645E-2,1.3399853E-1,2.2040363E-2,-8.594786E-3,-2.014925E-2,-7.962271E-2,-4.25166E-2,1.3557539E-2,-3.632957E-2,1.5101051E-3,5.2674834E-2,8.6845964E-2,1.05442226E-1,2.62661E-2,1.1737841E-2,9.375908E-4,-9.018166E-2,-6.384981E-2,-6.114677E-2,-3.0282235E-2,3.7951677E-3,2.8551046E-2,-8.797926E-3,-2.8459812E-3,1.1206787E-2,4.5538664E-2,5.6801736E-3,1.59363E-2,9.542795E-3,2.0834813E-2,3.0457852E-3,-1.8381902E-3,-6.702271E-2,-9.674513E-2,-7.788274E-2,-8.143414E-3,-7.894875E-2,-3.7042186E-2,-3.617159E-2,-1.4257062E-2,-4.7695716E-3,1.0389064E-2,6.8798526E-3,2.9041169E-3,5.79475E-3,8.898593E-3,-1.586658E-2,-6.8103876E-3,-8.631182E-2,-1.10561386E-1,-1.557811E-2,-1.0874608E-2,-1.502508E-2,-9.634685E-3,-9.369383E-3,-2.502922E-3,-3.9110377E-2,-3.636795E-3,-4.204291E-3,-3.6520677E-4,-1.1716323E-3,-3.2333453E-4,9.634604E-4,2.7048227E-3,-1.5422576E-2,-1.0722853E-2,-1.4023553E-2,-2.0807872E-2,-8.414417E-3,-3.0407455E-2,-2.596559E-3,-7.413615E-3],"categories":[],"categories_nodes":[],"categories_segments":[],"categories_sizes":[],"default_left":[0,0,0,0,0,0,0,0,0,0,0,0,0,0,0,0,0,0,0,0,0,0,0,0,0,0,0,0,0,0,0,0,0,0,0,0,0,0,0,0,0,0,0,0,0,0,0,0,0,0,0,0,0,0,0,0,0,0,0,0,0,0,0,0,0,0,0,0,0,0,0,0,0,0,0,0,0,0,0,0,0,0,0,0,0],"id":7,"left_children":[1,3,5,7,9,11,13,-1,15,17,19,-1,21,23,25,27,-1,-1,29,31,33,35,-1,37,39,41,-1,-1,43,45,47,49,51,53,55,-1,-1,-1,57,-1,-1,-1,-1,-1,-1,59,61,63,-1,65,67,69,71,73,75,-1,-1,-1,-1,-1,-1,77,79,-1,-1,-1,-1,-1,-1,81,-1,-1,-1,-1,-1,-1,-1,-1,-1,-1,-1,-1,83,-1,-1],"loss_changes":[2.3359413E0,4.5891434E-1,3.374189E-1,1.591043E-1,4.722824E-1,5.46553E-2,1.4711249E-1,0E0,5.4060105E-2,4.8689008E-2,1.4737236E-1,0E0,2.026703E-2,2.9355347E-2,2.7105927E-2,3.6305536E-2,0E0,0E0,2.3553967E-2,2.4588034E-2,1.1455047E-2,5.6529995E-3,0E0,1.7823726E-3,3.0618608E-2,2.2872597E-2,0E0,0E0,5.5157617E-3,9.172201E-3,1.215592E-2,1.638548E-2,6.279506E-3,2.8168266E-3,3.6266465E-3,0E0,0E0,0E0,1.0505617E-3,0E0,0E0,0E0,0E0,0E0,0E0,1.5073188E-2,1.7008781E-3,1.2200475E-3,0E0,5.490929E-4,7.890608E-3,1.3700277E-3,2.6820116E-3,1.2476783E-4,6.525987E-4,0E0,0E0,0E0,0E0,0E0,0E0,2.3794174E-4,4.9710274E-4,0E0,0E0,0E0,0E0,0E0,0E0,2.5002882E-3,0E0,0E0,0E0,0E0,0E0,0E0,0E0,0E0,0E0,0E0,0E0,0E0,4.6590474E-3,0E0,0E0],"parents":[2147483647,0,0,1,1,2,2,3,3,4,4,5,5,6,6,8,8,9,9,10,10,12,12,13,13,14,14,15,15,18,18,19,19,20,20,21,21,23,23,24,24,25,25,28,28,29,29,30,30,31,31,32,32,33,33,34,34,38,38,45,45,46,46,47,47,49,49,50,50,51,51,52,52,53,53,54,54,61,61,62,62,69,69,82,82],"right_children":[2,4,6,8,10,12,14,-1,16,18,20,-1,22,24,26,28,-1,-1,30,32,34,36,-1,38,40,42,-1,-1,44,46,48,50,52,54,56,-1,-1,-1,58,-1,-1,-1,-1,-1,-1,60,62,64,-1,66,68,70,72,74,76,-1,-1,-1,-1,-1,-1,78,80,-1,-1,-1,-1,-1,-1,82,-1,-1,-1,-1,-1,-1,-1,-1,-1,-1,-1,-1,84,-1,-1],"split_conditions":[5.832E-1,6E1,2.593531E3,4.055E-1,2.96625E3,1.8E1,8.18E-1,1.8091137E-2,6.799E-1,6.74E-2,4.095E-1,1.00227045E-2,4.7E1,6.573E-1,3.236515E3,5.432E-1,-8.594786E-3,-2.014925E-2,2.884984E3,2.774E-1,4.983E-1,7.484E-1,1.5101051E-3,5.1E1,2E1,2.5E1,2.62661E-2,1.1737841E-2,8.198E-1,7.6E1,1.882E-1,6.235E-1,1.14E2,4.36E-1,7.8E1,-8.797926E-3,-2.8459812E-3,1.1206787E-2,3.157969E3,5.6801736E-3,1.59363E-2,9.542795E-3,2.0834813E-2,3.0457852E-3,-1.8381902E-3,6.75E-1,2.069E-1,6.285E-1,-8.143414E-3,6.788E-1,1.17E2,3.918E-1,2.992703E3,9.4E1,4.729E-1,6.8798526E-3,2.9041169E-3,5.79475E-3,8.898593E-3,-1.586658E-2,-6.8103876E-3,1.984E-1,2.333875E3,-1.557811E-2,-1.0874608E-2,-1.502508E-2,-9.634685E-3,-9.369383E-3,-2.502922E-3,6.525E-1,-3.636795E-3,-4.204291E-3,-3.6520677E-4,-1.1716323E-3,-3.2333453E-4,9.634604E-4,2.7048227E-3,-1.5422576E-2,-1.0722853E-2,-1.4023553E-2,-2.0807872E-2,-8.414417E-3,1.04E2,-2.596559E-3,-7.413615E-3],"split_indices":[3,0,4,3,4,0,3,0,2,3,3,0,0,3,4,1,0,0,4,3,3,2,0,0,0,0,0,0,1,0,3,1,0,3,0,0,0,0,4,0,0,0,0,0,0,2,3,2,0,2,0,3,4,0,2,0,0,0,0,0,0,1,4,0,0,0,0,0,0,2,0,0,0,0,0,0,0,0,0,0,0,0,0,0,0],"split_type":[0,0,0,0,0,0,0,0,0,0,0,0,0,0,0,0,0,0,0,0,0,0,0,0,0,0,0,0,0,0,0,0,0,0,0,0,0,0,0,0,0,0,0,0,0,0,0,0,0,0,0,0,0,0,0,0,0,0,0,0,0,0,0,0,0,0,0,0,0,0,0,0,0,0,0,0,0,0,0,0,0,0,0,0,0],"sum_hessian":[7.19E2,4.77E2,2.42E2,6.7E1,4.1E2,5E1,1.92E2,1.9E1,4.8E1,2.17E2,1.93E2,1.2E1,3.8E1,1.25E2,6.7E1,3.5E1,1.3E1,4.2E1,1.75E2,1.15E2,7.8E1,2E1,1.8E1,4.7E1,7.8E1,3.2E1,3.5E1,1E1,2.5E1,1.02E2,7.3E1,4.4E1,7.1E1,4.8E1,3E1,1E1,1E1,1.3E1,3.4E1,1.1E1,6.7E1,1E1,2.2E1,1E1,1.5E1,2.5E1,7.7E1,3.6E1,3.7E1,2.4E1,2E1,5.1E1,2E1,2.1E1,2.7E1,1.3E1,1.7E1,1.6E1,1.8E1,1.1E1,1.4E1,4.8E1,2.9E1,1.4E1,2.2E1,1.4E1,1E1,1E1,1E1,4.1E1,1E1,1E1,1E1,1.1E1,1E1,1.6E1,1.1E1,3.6E1,1.2E1,1.2E1,1.7E1,1.6E1,2.5E1,1.3E1,1.2E1],"tree_param":{"num_deleted":"0","num_feature":"5","num_nodes":"85","size_leaf_vector":"1"}},{"base_weights":[2.1140787E-3,-3.582192E-2,7.6578125E-2,2.7040772E-2,-4.4888273E-2,4.8664104E-2,1.0233361E-1,1.544595E-2,3.8573106E-3,-7.19179E-2,-1.4931242E-2,1.3371689E-2,5.838702E-2,8.941589E-2,2.5341325E-2,-2.7339594E-2,1.4295826E-2,-7.9541974E-2,-5.479777E-2,-3.5857685E-2,1.9683713E-2,-3.0671926E-3,7.3966538E-3,1.5329939E-2,5.0884593E-2,5.939934E-3,1.7016662E-2,-1.3257711E-2,-2.536961E-3,-5.9051294E-2,-8.803736E-2,-6.579003E-2,-3.849195E-2,-4.9850266E-2,-1.9868216E-2,1.3012153E-2,8.108803E-3,1.6244645E-3,5.7505757E-2,-2.5180287E-3,2.275489E-3,-4.7100987E-2,-1.5760954E-2,-1.8577542E-2,-8.16795E-2,-6.708141E-3,-1.22278035E-2,-7.2282E-3,-4.845617E-3,-5.8580663E-2,-3.914193E-3,-2.1626646E-2,-1.6904583E-3,6.036771E-3,2.2706475E-2,3.997369E-2,6.9833554E-2,-5.3772726E-3,-1.0021637E-2,-9.691345E-2,-7.516659E-2,-1.3134989E-2,-4.3523066E-2,-2.908067E-2,-1.419986E-2,-1.8636478E-4,8.628861E-3,2.6882917E-3,5.100119E-3,4.697485E-3,7.4828565E-3,1.3026442E-2,7.816518E-3,-1.1658807E-2,-1.9141665E-2,-1.3207823E-2,-8.9686E-3,-1.0205537E-2,-3.7278319E-3,-3.6731968E-3,-5.6226635E-3,-3.3118378E-3,-9.4808877E-4,2.1675094E-3,1.4065497E-4],"categories":[],"categories_nodes":[],"categories_segments":[],"categories_sizes":[],"default_left":[0,0,0,0,0,0,0,0,0,0,0,0,0,0,0,0,0,0,0,0,0,0,0,0,0,0,0,0,0,0,0,0,0,0,0,0,0,0,0,0,0,0,0,0,0,0,0,0,0,0,0,0,0,0,0,0,0,0,0,0,0,0,0,0,0,0,0,0,0,0,0,0,0,0,0,0,0,0,0,0,0,0,0,0,0],"id":8,"left_children":[1,3,5,7,9,11,13,-1,15,17,19,21,23,25,-1,27,-1,29,31,33,35,-1,-1,-1,37,-1,-1,-1,39,41,43,45,47,49,51,53,-1,-1,55,-1,-1,57,-1,-1,59,-1,-1,-1,-1,61,-1,63,-1,65,67,69,71,-1,-1,73,75,-1,77,79,81,-1,83,-1,-1,-1,-1,-1,-1,-1,-1,-1,-1,-1,-1,-1,-1,-1,-1,-1,-1],"loss_changes":[2.0422978E0,2.742129E-1,1.7044115E-1,9.1514364E-2,3.3820194E-1,4.0053517E-2,6.562388E-2,0E0,1.1899132E-1,2.4356842E-2,1.4557938E-1,2.7020581E-2,1.8326342E-2,6.223923E-2,0E0,4.333821E-2,0E0,2.0912707E-2,1.0193512E-2,2.6976302E-2,1.3880951E-2,0E0,0E0,0E0,2.0725757E-2,0E0,0E0,0E0,5.0156945E-3,1.51399225E-2,5.917728E-3,4.550904E-3,1.19276345E-4,1.3924167E-2,8.160956E-4,4.123087E-3,0E0,0E0,1.168932E-2,0E0,0E0,5.110182E-3,0E0,0E0,1.1488199E-3,0E0,0E0,0E0,0E0,1.1098474E-2,0E0,2.3550298E-3,0E0,7.1353884E-4,8.488083E-4,4.0710717E-4,3.2488555E-3,0E0,0E0,2.4175048E-3,6.7558885E-4,0E0,9.692572E-3,2.9522926E-5,1.1648876E-3,0E0,9.232606E-4,0E0,0E0,0E0,0E0,0E0,0E0,0E0,0E0,0E0,0E0,0E0,0E0,0E0,0E0,0E0,0E0,0E0,0E0],"parents":[2147483647,0,0,1,1,2,2,3,3,4,4,5,5,6,6,8,8,9,9,10,10,11,11,12,12,13,13,15,15,17,17,18,18,19,19,20,20,24,24,28,28,29,29,30,30,31,31,32,32,33,33,34,34,35,35,38,38,41,41,44,44,49,49,51,51,53,53,54,54,55,55,56,56,59,59,60,60,62,62,63,63,64,64,66,66],"right_children":[2,4,6,8,10,12,14,-1,16,18,20,22,24,26,-1,28,-1,30,32,34,36,-1,-1,-1,38,-1,-1,-1,40,42,44,46,48,50,52,54,-1,-1,56,-1,-1,58,-1,-1,60,-1,-1,-1,-1,62,-1,64,-1,66,68,70,72,-1,-1,74,76,-1,78,80,82,-1,84,-1,-1,-1,-1,-1,-1,-1,-1,-1,-1,-1,-1,-1,-1,-1,-1,-1,-1],"split_conditions":[6.083E-1,5.5E1,7.81E-1,2.8E1,2.96625E3,2.521985E3,9.549E-1,1.544595E-2,4.3E1,2.892031E3,4.2E-1,3.777E-1,5.023E-1,5.669E-1,2.5341325E-2,2.467328E3,1.4295826E-2,8.4E1,1.969E-1,3.095E-1,3.141578E3,-3.0671926E-3,7.3966538E-3,1.5329939E-2,3.099563E3,5.939934E-3,1.7016662E-2,-1.3257711E-2,2.556593E3,6.79E-1,4.02E-2,2.900422E3,2.578E-1,1.37E2,5.379E-1,4.877E-1,8.108803E-3,1.6244645E-3,6.803E-1,-2.5180287E-3,2.275489E-3,4.372E-1,-1.5760954E-2,-1.8577542E-2,2.392375E3,-6.708141E-3,-1.22278035E-2,-7.2282E-3,-4.845617E-3,5.728E-1,-3.914193E-3,3.694E-1,-1.6904583E-3,3.0235E3,5.571E-1,3.642E-1,7.533E-1,-5.3772726E-3,-1.0021637E-2,2.333875E3,1.51E-1,-1.3134989E-2,6.1E-1,3.357E-1,4.376E-1,-1.8636478E-4,5.274E-1,2.6882917E-3,5.100119E-3,4.697485E-3,7.4828565E-3,1.3026442E-2,7.816518E-3,-1.1658807E-2,-1.9141665E-2,-1.3207823E-2,-8.9686E-3,-1.0205537E-2,-3.7278319E-3,-3.6731968E-3,-5.6226635E-3,-3.3118378E-3,-9.4808877E-4,2.1675094E-3,1.4065497E-4],"split_indices":[3,0,3,0,4,4,3,0,0,4,3,1,1,1,0,4,0,0,3,3,4,0,0,0,4,0,0,0,4,1,3,4,3,0,1,3,0,0,3,0,0,3,0,0,4,0,0,0,0,1,0,3,0,4,3,2,3,0,0,4,3,0,2,3,1,0,1,0,0,0,0,0,0,0,0,0,0,0,0,0,0,0,0,0,0],"split_type":[0,0,0,0,0,0,0,0,0,0,0,0,0,0,0,0,0,0,0,0,0,0,0,0,0,0,0,0,0,0,0,0,0,0,0,0,0,0,0,0,0,0,0,0,0,0,0,0,0,0,0,0,0,0,0,0,0,0,0,0,0,0,0,0,0,0,0,0,0,0,0,0,0,0,0,0,0,0,0,0,0,0,0,0,0],"sum_hessian":[7.21E2,4.78E2,2.43E2,6E1,4.18E2,1.18E2,1.25E2,1.5E1,4.5E1,2.19E2,1.99E2,2.6E1,9.2E1,1.01E2,2.4E1,3.3E1,1.2E1,1.49E2,7E1,1.24E2,7.5E1,1.3E1,1.3E1,1.5E1,7.7E1,1.9E1,8.2E1,1E1,2.3E1,4.6E1,1.03E2,4E1,3E1,6.5E1,5.9E1,6.2E1,1.3E1,1.1E1,6.6E1,1.3E1,1E1,3.6E1,1E1,1.9E1,8.4E1,1E1,3E1,1.8E1,1.2E1,4.8E1,1.7E1,4.9E1,1E1,3.7E1,2.5E1,2.9E1,3.7E1,1.8E1,1.8E1,2.1E1,6.3E1,1.9E1,2.9E1,2.3E1,2.6E1,1E1,2.7E1,1.5E1,1E1,1E1,1.9E1,2.6E1,1.1E1,1E1,1.1E1,5.2E1,1.1E1,1.5E1,1.4E1,1.1E1,1.2E1,1.5E1,1.1E1,1.7E1,1E1],"tree_param":{"num_deleted":"0","num_feature":"5","num_nodes":"85","size_leaf_vector":"1"}},{"base_weights":[-2.722045E-3,-4.320868E-2,4.2218965E-2,1.1883895E-2,-4.6445932E-2,1.3645088E-2,7.7341326E-2,-6.1897635E-2,-2.8898565E-2,-1.2039144E-2,3.0212238E-2,6.440004E-2,2.0124614E-2,-9.7304516E-2,-5.474244E-2,-5.475234E-2,-1.6480684E-2,4.002037E-3,-4.9177606E-2,2.4335101E-2,9.946362E-3,6.514606E-4,7.164888E-2,-1.8849716E-2,-1.2230404E-2,8.141053E-4,-6.0655095E-2,-1.1974648E-2,-4.3865588E-2,-2.0211738E-2,1.0059838E-3,1.2829597E-2,-1.6300412E-2,-4.1088033E-3,-1.1715543E-2,1.4098547E-2,2.9013775E-2,5.6232386E-3,7.6069266E-2,-5.3339448E-2,-7.686476E-2,-9.296594E-3,-3.0820721E-3,-2.7379517E-2,-1.0578898E-2,-1.2923277E-2,4.4190595E-3,3.426502E-3,1.4058582E-3,3.0241895E-3,3.3311494E-2,5.9190158E-2,1.4379558E-2,-1.0814942E-2,-3.814825E-2,-5.7687826E-2,-9.124091E-2,-3.7929196E-2,-1.7918278E-2,-1.9544689E-2,9.847085E-4,-2.6801946E-3,5.027079E-3,3.902915E-2,2.6718793E-2,7.457215E-3,1.0794903E-2,-4.178447E-2,-3.988537E-3,-5.8159255E-3,-1.2424421E-2,-1.8782884E-2,-1.02878325E-2,-4.228118E-3,-8.052527E-3,-8.622975E-3,-5.9976866E-3,-4.1095987E-3,-1.6962844E-3,8.274634E-3,4.5911083E-3,2.7763157E-3,6.10614E-3,-8.038772E-3,-5.742826E-3,-1.8540524E-3,-8.3578937E-4],"categories":[],"categories_nodes":[],"categories_segments":[],"categories_sizes":[],"default_left":[0,0,0,0,0,0,0,0,0,0,0,0,0,0,0,0,0,0,0,0,0,0,0,0,0,0,0,0,0,0,0,0,0,0,0,0,0,0,0,0,0,0,0,0,0,0,0,0,0,0,0,0,0,0,0,0,0,0,0,0,0,0,0,0,0,0,0,0,0,0,0,0,0,0,0,0,0,0,0,0,0,0,0,0,0,0,0],"id":9,"left_children":[1,3,5,-1,7,9,11,13,15,17,19,21,-1,23,25,27,29,31,33,35,-1,-1,37,-1,-1,-1,39,-1,41,43,-1,-1,45,-1,-1,47,49,-1,51,53,55,-1,-1,57,59,-1,61,-1,-1,-1,63,65,-1,-1,67,69,71,73,75,77,-1,-1,-1,79,81,-1,-1,83,-1,-1,-1,-1,-1,-1,-1,85,-1,-1,-1,-1,-1,-1,-1,-1,-1,-1,-1],"loss_changes":[1.3282473E0,1.4499485E-1,3.4618402E-1,0E0,9.961647E-2,8.206253E-2,7.759148E-2,4.483527E-2,5.5923328E-2,4.547341E-2,1.852198E-2,5.280435E-2,0E0,3.5377145E-3,5.9135675E-2,7.156238E-3,1.0266613E-2,8.0638684E-2,9.999894E-3,4.3324046E-3,0E0,0E0,1.5667021E-2,0E0,0E0,0E0,1.3924897E-2,0E0,9.84548E-3,6.8911463E-3,0E0,0E0,5.4399177E-2,0E0,0E0,1.0213652E-3,2.5674552E-3,0E0,1.045686E-2,1.5719831E-2,7.1425736E-3,0E0,0E0,5.2093416E-3,6.8966895E-3,0E0,1.7647274E-2,0E0,0E0,0E0,7.288419E-4,1.1831522E-5,0E0,0E0,1.5190318E-3,5.70938E-3,7.985011E-3,2.24524E-3,5.1540593E-3,1.1500949E-3,0E0,0E0,0E0,1.4085211E-3,1.8554423E-3,0E0,0E0,7.181615E-5,0E0,0E0,0E0,0E0,0E0,0E0,0E0,1.4793279E-4,0E0,0E0,0E0,0E0,0E0,0E0,0E0,0E0,0E0,0E0,0E0],"parents":[2147483647,0,0,1,1,2,2,4,4,5,5,6,6,7,7,8,8,9,9,10,10,11,11,13,13,14,14,15,15,16,16,17,17,18,18,19,19,22,22,26,26,28,28,29,29,32,32,35,35,36,36,38,38,39,39,40,40,43,43,44,44,46,46,50,50,51,51,54,54,55,55,56,56,57,57,58,58,59,59,63,63,64,64,67,67,75,75],"right_children":[2,4,6,-1,8,10,12,14,16,18,20,22,-1,24,26,28,30,32,34,36,-1,-1,38,-1,-1,-1,40,-1,42,44,-1,-1,46,-1,-1,48,50,-1,52,54,56,-1,-1,58,60,-1,62,-1,-1,-1,64,66,-1,-1,68,70,72,74,76,78,-1,-1,-1,80,82,-1,-1,84,-1,-1,-1,-1,-1,-1,-1,86,-1,-1,-1,-1,-1,-1,-1,-1,-1,-1,-1],"split_conditions":[4.692E-1,3.5E1,7.271E-1,1.1883895E-2,2.942797E3,2.66789E3,9.163E-1,8.41E-2,2.533E-1,5.728E-1,6.803E-1,2.57236E3,2.0124614E-2,2.801156E3,6.5E1,5.274E-1,4.403E-1,6.546E-1,2.9E1,5.352E-1,9.946362E-3,6.514606E-4,1.4E1,-1.8849716E-2,-1.2230404E-2,8.141053E-4,3.074E-1,-1.1974648E-2,6.239E-1,6.563E-1,1.0059838E-3,1.2829597E-2,2.400672E3,-4.1088033E-3,-1.1715543E-2,7.8E1,3.642E-1,5.6232386E-3,7.931E-1,1.661E-1,2.21E-1,-9.296594E-3,-3.0820721E-3,3.425E-1,3.030765E3,-1.2923277E-2,2.463578E3,3.426502E-3,1.4058582E-3,3.0241895E-3,3.165359E3,7.917E-1,1.4379558E-2,-1.0814942E-2,2.375E-1,1.8E2,3.756E-1,3.0235E3,3.069E3,4.11E-1,9.847085E-4,-2.6801946E-3,5.027079E-3,7.3E1,6.145E-1,7.457215E-3,1.0794903E-2,2.538E-1,-3.988537E-3,-5.8159255E-3,-1.2424421E-2,-1.8782884E-2,-1.02878325E-2,-4.228118E-3,-8.052527E-3,3.855E-1,-5.9976866E-3,-4.1095987E-3,-1.6962844E-3,8.274634E-3,4.5911083E-3,2.7763157E-3,6.10614E-3,-8.038772E-3,-5.742826E-3,-1.8540524E-3,-8.3578937E-4],"split_indices":[3,0,3,0,4,4,3,1,3,1,3,4,0,4,0,1,3,2,0,3,0,0,0,0,0,0,1,0,2,2,0,0,4,0,0,0,2,0,3,3,3,0,0,3,4,0,4,0,0,0,4,1,0,0,3,0,3,4,4,1,0,0,0,0,3,0,0,1,0,0,0,0,0,0,0,3,0,0,0,0,0,0,0,0,0,0,0],"split_type":[0,0,0,0,0,0,0,0,0,0,0,0,0,0,0,0,0,0,0,0,0,0,0,0,0,0,0,0,0,0,0,0,0,0,0,0,0,0,0,0,0,0,0,0,0,0,0,0,0,0,0,0,0,0,0,0,0,0,0,0,0,0,0,0,0,0,0,0,0,0,0,0,0,0,0,0,0,0,0,0,0,0,0,0,0,0,0],"sum_hessian":[7.28E2,3.83E2,3.45E2,1E1,3.73E2,1.91E2,1.54E2,1.97E2,1.76E2,7.5E1,1.16E2,1.2E2,3.4E1,3.1E1,1.66E2,5.6E1,1.2E2,5.3E1,2.2E1,9.8E1,1.8E1,1.3E1,1.07E2,1.7E1,1.4E1,1.5E1,1.51E2,2E1,3.6E1,1.03E2,1.7E1,1.1E1,4.2E1,1.1E1,1.1E1,3.2E1,6.6E1,1.2E1,9.5E1,1.07E2,4.4E1,2.4E1,1.2E1,5.8E1,4.5E1,1E1,3.2E1,1.4E1,1.8E1,2E1,4.6E1,3.7E1,5.8E1,6E1,4.7E1,2.1E1,2.3E1,2.6E1,3.2E1,2.9E1,1.6E1,1.8E1,1.4E1,2.2E1,2.4E1,1.2E1,2.5E1,3.6E1,1.1E1,1E1,1.1E1,1.2E1,1.1E1,1.3E1,1.3E1,2.2E1,1E1,1.8E1,1.1E1,1E1,1.2E1,1.3E1,1.1E1,1.7E1,1.9E1,1.2E1,1E1],"tree_param":{"num_deleted":"0","num_feature":"5","num_nodes":"87","size_leaf_vector":"1"}},{"base_weights":[1.601837E-4,-2.674789E-2,4.7742184E-2,5.031195E-2,-3.112519E-2,4.0204987E-2,1.8213531E-2,1.3979984E-2,3.1004075E-3,-6.313257E-2,-2.2210766E-2,3.199281E-2,7.184882E-2,-8.472134E-2,-5.0064523E-2,-3.1142253E-2,6.379447E-3,3.5759166E-2,-5.234201E-3,9.317333E-3,1.3178553E-2,-1.840585E-2,-1.0375462E-2,-5.9466856E-3,-9.295883E-3,7.080785E-3,-3.4243707E-2,-2.2921017E-3,1.2637633E-2,2.1663185E-2,4.5539197E-2,-5.0747156E-2,-2.480548E-2,2.3735583E-2,5.662922E-3,8.529348E-3,1.401675E-2,1.611012E-2,3.9085865E-2,-4.493377E-2,-1.42349135E-2,-3.471608E-2,-1.2382893E-2,2.8088859E-3,5.1192674E-3,1.0377354E-2,-8.271439E-4,-9.191657E-3,3.234899E-2,2.0375827E-2,4.8566934E-2,-2.2810227E-3,-5.034536E-2,-4.1875444E-2,-2.35225E-2,-1.6758984E-2,5.067255E-4,8.890059E-4,2.8057126E-3,4.46857E-2,-1.4077064E-3,2.673154E-2,8.787537E-4,5.6793033E-3,5.9275996E-2,-3.832754E-2,-1.1202964E-2,-4.5425493E-2,-4.061328E-3,-9.682728E-3,-8.737407E-3,-2.0882899E-2,-8.694995E-3,1.0439929E-2,3.2615867E-2,3.2562106E-3,5.345452E-3,8.07341E-3,1.1559868E-2,-7.803225E-3,-5.246581E-3,-6.1878E-3,-1.1248335E-2,-3.6604435E-3,1.5801131E-3,-2.198592E-3,-4.297352E-3,-2.0796824E-3,-7.071302E-4,1.3908983E-3,8.29409E-3],"categories":[],"categories_nodes":[],"categories_segments":[],"categories_sizes":[],"default_left":[0,0,0,0,0,0,0,0,0,0,0,0,0,0,0,0,0,0,0,0,0,0,0,0,0,0,0,0,0,0,0,0,0,0,0,0,0,0,0,0,0,0,0,0,0,0,0,0,0,0,0,0,0,0,0,0,0,0,0,0,0,0,0,0,0,0,0,0,0,0,0,0,0,0,0,0,0,0,0,0,0,0,0,0,0,0,0,0,0,0,0],"id":10,"left_children":[1,3,5,7,9,11,-1,-1,-1,13,15,17,19,21,23,25,27,29,-1,-1,-1,-1,-1,-1,-1,-1,31,-1,33,35,37,39,41,43,45,-1,47,-1,49,51,-1,53,55,-1,-1,57,-1,-1,59,61,63,-1,65,67,69,71,-1,-1,-1,73,-1,75,-1,-1,77,79,-1,81,-1,-1,83,85,87,-1,89,-1,-1,-1,-1,-1,-1,-1,-1,-1,-1,-1,-1,-1,-1,-1,-1],"loss_changes":[9.1800046E-1,1.5605581E-1,1.1422247E-1,2.4701461E-2,1.2242985E-1,5.7989955E-2,0E0,0E0,0E0,2.227804E-2,8.727406E-2,4.536821E-2,7.5288117E-4,1.26384795E-2,2.7782768E-3,6.0566813E-2,1.0452518E-2,2.3276672E-2,0E0,0E0,0E0,0E0,0E0,0E0,0E0,0E0,3.7681997E-2,0E0,4.7421E-3,1.5777215E-2,2.9763237E-2,1.4001295E-2,1.939167E-2,6.25764E-4,2.048118E-3,0E0,7.740973E-2,0E0,1.5507802E-2,1.2717262E-2,0E0,6.1473474E-3,4.9705636E-3,0E0,0E0,8.1291934E-4,0E0,0E0,2.4495777E-2,3.03585E-3,7.622659E-3,0E0,1.0635227E-2,2.2284538E-3,1.8179018E-2,1.7139707E-3,0E0,0E0,0E0,5.7866946E-3,0E0,2.4439022E-4,0E0,0E0,3.3259392E-4,9.126663E-4,0E0,5.479306E-3,0E0,0E0,6.60789E-3,1.0230206E-3,2.954516E-4,0E0,9.393703E-3,0E0,0E0,0E0,0E0,0E0,0E0,0E0,0E0,0E0,0E0,0E0,0E0,0E0,0E0,0E0,0E0],"parents":[2147483647,0,0,1,1,2,2,3,3,4,4,5,5,9,9,10,10,11,11,12,12,13,13,14,14,15,15,16,16,17,17,26,26,28,28,29,29,30,30,31,31,32,32,33,33,34,34,36,36,38,38,39,39,41,41,42,42,45,45,48,48,49,49,50,50,52,52,53,53,54,54,55,55,59,59,61,61,64,64,65,65,67,67,70,70,71,71,72,72,74,74],"right_children":[2,4,6,8,10,12,-1,-1,-1,14,16,18,20,22,24,26,28,30,-1,-1,-1,-1,-1,-1,-1,-1,32,-1,34,36,38,40,42,44,46,-1,48,-1,50,52,-1,54,56,-1,-1,58,-1,-1,60,62,64,-1,66,68,70,72,-1,-1,-1,74,-1,76,-1,-1,78,80,-1,82,-1,-1,84,86,88,-1,90,-1,-1,-1,-1,-1,-1,-1,-1,-1,-1,-1,-1,-1,-1,-1,-1],"split_conditions":[5.781E-1,3.1E1,9.365E-1,1.893E-1,1.871E-1,3.265656E3,1.8213531E-2,1.3979984E-2,3.1004075E-3,8.41E-2,4.445E-1,8.586E-1,7.819E-1,2.801156E3,9.4E1,5.7E1,2.556593E3,4E1,-5.234201E-3,9.317333E-3,1.3178553E-2,-1.840585E-2,-1.0375462E-2,-5.9466856E-3,-9.295883E-3,7.080785E-3,2.948891E3,-2.2921017E-3,7.8E1,1.3E1,4.329E-1,6.79E-1,3.166E-1,4.553E-1,3.08325E3,8.529348E-3,2.556593E3,1.611012E-2,3.159172E3,4.083E-1,-1.42349135E-2,6.788E-1,4.095E-1,2.8088859E-3,5.1192674E-3,5.115E-1,-8.271439E-4,-9.191657E-3,8.461E-1,5.19E-1,6.781E-1,-2.2810227E-3,3.265E-1,1.41E2,3.323E-1,1.07E2,5.067255E-4,8.890059E-4,2.8057126E-3,3.183516E3,-1.4077064E-3,6.417E-1,8.787537E-4,5.6793033E-3,3.67E-1,1.661E-1,-1.1202964E-2,1.23E2,-4.061328E-3,-9.682728E-3,4.9E-1,9.3E1,2.996922E3,1.0439929E-2,7.909E-1,3.2562106E-3,5.345452E-3,8.07341E-3,1.1559868E-2,-7.803225E-3,-5.246581E-3,-6.1878E-3,-1.1248335E-2,-3.6604435E-3,1.5801131E-3,-2.198592E-3,-4.297352E-3,-2.0796824E-3,-7.071302E-4,1.3908983E-3,8.29409E-3],"split_indices":[3,0,3,2,1,4,0,0,0,1,3,2,3,4,0,0,4,0,0,0,0,0,0,0,0,0,4,0,0,0,1,1,3,2,4,0,4,0,4,2,0,2,3,0,0,3,0,0,1,2,3,0,1,0,1,0,0,0,0,4,0,3,0,0,2,3,0,0,0,0,1,0,4,0,3,0,0,0,0,0,0,0,0,0,0,0,0,0,0,0,0],"split_type":[0,0,0,0,0,0,0,0,0,0,0,0,0,0,0,0,0,0,0,0,0,0,0,0,0,0,0,0,0,0,0,0,0,0,0,0,0,0,0,0,0,0,0,0,0,0,0,0,0,0,0,0,0,0,0,0,0,0,0,0,0,0,0,0,0,0,0,0,0,0,0,0,0,0,0,0,0,0,0,0,0,0,0,0,0,0,0,0,0,0,0],"sum_hessian":[7.15E2,4.57E2,2.58E2,2.4E1,4.33E2,2.31E2,2.7E1,1.1E1,1.3E1,9.3E1,3.4E2,1.85E2,4.6E1,3.3E1,6E1,2.59E2,8.1E1,1.75E2,1E1,1.6E1,3E1,1.4E1,1.9E1,1.8E1,4.2E1,1E1,2.49E2,1.9E1,6.2E1,7.3E1,1.02E2,8.9E1,1.6E2,2.3E1,3.9E1,1.4E1,5.9E1,1E1,9.2E1,7.8E1,1.1E1,8.8E1,7.2E1,1.3E1,1E1,2.7E1,1.2E1,1.2E1,4.7E1,3.2E1,6E1,1.2E1,6.6E1,5.2E1,3.6E1,5.6E1,1.6E1,1.6E1,1.1E1,3.6E1,1.1E1,2.2E1,1E1,2.7E1,3.3E1,4E1,2.6E1,4.2E1,1E1,1E1,2.6E1,3.6E1,2E1,1.3E1,2.3E1,1.1E1,1.1E1,1.8E1,1.5E1,1.6E1,2.4E1,3.2E1,1E1,1.5E1,1.1E1,1.5E1,2.1E1,1E1,1E1,1E1,1.3E1],"tree_param":{"num_deleted":"0","num_feature":"5","num_nodes":"91","size_leaf_vector":"1"}},{"base_weights":[-2.601269E-5,3.7099607E-2,-2.1756072E-2,2.4069197E-2,2.89724E-2,-3.3883523E-2,1.2042448E-2,1.7589586E-2,6.302232E-2,-4.7867764E-2,-2.278186E-2,-9.956903E-3,2.4421288E-2,-7.2816564E-3,2.3411142E-2,5.3683046E-2,1.3737137E-2,-3.5160843E-2,-5.264568E-2,-3.0817077E-2,2.663317E-3,-1.633679E-2,6.5340643E-4,1.6108334E-2,7.825758E-3,1.2169969E-2,1.7322557E-2,5.9891134E-3,1.0184815E-2,-1.9780615E-2,-4.7153506E-2,-1.1596075E-2,-4.652044E-2,-3.6442842E-2,-2.0257851E-2,2.1360207E-3,-2.4498133E-3,-5.3365557E-3,-8.2360633E-4,1.1922443E-2,4.1938517E-3,-1.4824346E-2,2.6329214E-2,-2.273164E-3,-4.066675E-3,-1.049622E-2,-3.913245E-3,-4.0356334E-2,-1.1055697E-2,-4.0979613E-2,-1.9732514E-2,-1.3953083E-2,-6.1822776E-3,-1.0617302E-3,6.210327E-4,3.1382423E-3,8.591202E-3,7.909581E-3,-4.1483846E-2,2.39628E-5,3.996868E-2,-8.164833E-3,-2.5498623E-2,-3.482558E-2,-9.939321E-3,-4.5676604E-3,-1.6426834E-3,-1.6994886E-2,-9.131774E-4,5.641914E-4,1.8531954E-3,-1.17224185E-2,-2.3888461E-3,1.9684E-2,-7.069032E-3,2.191132E-2,4.9094994E-2,-2.3922399E-3,-5.593858E-3,-4.740978E-2,-2.191947E-2,-3.4794244E-3,-2.340459E-3,7.851018E-3,-1.1641141E-3,5.2322997E-3,1.0414557E-3,5.8609378E-3,5.158186E-2,-5.04119E-3,-9.832965E-3,-4.6046805E-3,-1.6640801E-3,7.3689907E-3,1.00432485E-2],"categories":[],"categories_nodes":[],"categories_segments":[],"categories_sizes":[],"default_left":[0,0,0,0,0,0,0,0,0,0,0,0,0,0,0,0,0,0,0,0,0,0,0,0,0,0,0,0,0,0,0,0,0,0,0,0,0,0,0,0,0,0,0,0,0,0,0,0,0,0,0,0,0,0,0,0,0,0,0,0,0,0,0,0,0,0,0,0,0,0,0,0,0,0,0,0,0,0,0,0,0,0,0,0,0,0,0,0,0,0,0,0,0,0,0],"id":11,"left_children":[1,3,5,-1,7,9,11,13,15,17,19,21,23,-1,25,27,-1,29,31,33,35,37,-1,39,-1,-1,41,-1,-1,43,45,-1,47,49,51,-1,53,-1,-1,55,-1,57,59,-1,-1,-1,-1,61,-1,63,65,67,-1,-1,-1,-1,69,-1,71,73,75,-1,77,79,-1,-1,-1,81,-1,-1,-1,-1,-1,83,-1,85,87,-1,-1,89,91,-1,-1,-1,-1,-1,-1,-1,93,-1,-1,-1,-1,-1,-1],"loss_changes":[5.9214896E-1,2.2989783E-1,1.9018713E-1,0E0,9.69502E-2,5.1849127E-2,3.3739313E-2,6.880064E-2,6.6702366E-3,7.255852E-3,3.933792E-2,4.039529E-3,1.3823476E-2,0E0,5.1037848E-2,3.4944415E-3,0E0,7.183071E-3,7.552266E-3,7.9346895E-3,2.448712E-3,5.3190095E-3,0E0,1.8933099E-3,0E0,0E0,4.5847494E-2,0E0,0E0,2.5420543E-4,7.3366053E-3,0E0,6.994933E-3,6.317593E-3,5.0219707E-3,0E0,7.8573625E-4,0E0,0E0,7.8666303E-4,0E0,5.9747174E-2,4.413016E-2,0E0,0E0,0E0,0E0,6.6306144E-3,0E0,6.125048E-3,1.3696337E-3,9.434484E-4,0E0,0E0,0E0,0E0,3.469279E-4,0E0,1.8316656E-2,3.644506E-2,1.2272835E-2,0E0,1.7247386E-3,8.218348E-3,0E0,0E0,0E0,4.1444786E-5,0E0,0E0,0E0,0E0,0E0,2.1948937E-2,0E0,4.022441E-3,6.881356E-5,0E0,0E0,3.672801E-3,1.7122906E-3,0E0,0E0,0E0,0E0,0E0,0E0,0E0,9.8615885E-5,0E0,0E0,0E0,0E0,0E0,0E0],"parents":[2147483647,0,0,1,1,2,2,4,4,5,5,6,6,7,7,8,8,9,9,10,10,11,11,12,12,14,14,15,15,17,17,18,18,19,19,20,20,21,21,23,23,26,26,29,29,30,30,32,32,33,33,34,34,36,36,39,39,41,41,42,42,47,47,49,49,50,50,51,51,56,56,58,58,59,59,60,60,62,62,63,63,67,67,73,73,75,75,76,76,79,79,80,80,88,88],"right_children":[2,4,6,-1,8,10,12,14,16,18,20,22,24,-1,26,28,-1,30,32,34,36,38,-1,40,-1,-1,42,-1,-1,44,46,-1,48,50,52,-1,54,-1,-1,56,-1,58,60,-1,-1,-1,-1,62,-1,64,66,68,-1,-1,-1,-1,70,-1,72,74,76,-1,78,80,-1,-1,-1,82,-1,-1,-1,-1,-1,84,-1,86,88,-1,-1,90,92,-1,-1,-1,-1,-1,-1,-1,94,-1,-1,-1,-1,-1,-1],"split_conditions":[5.9E1,8E0,3.066766E3,2.4069197E-2,3.243422E3,2.896063E3,4.603E-1,2.394734E3,8.927E-1,8.4E1,3.694E-1,6.695E-1,6.556E-1,-7.2816564E-3,3.662E-1,8.586E-1,1.3737137E-2,4.078E-1,5.06E-2,2.519E-1,3.372E-1,3.95E-1,6.5340643E-4,3.157969E3,7.825758E-3,1.2169969E-2,2.2E1,5.9891134E-3,1.0184815E-2,7.4E1,2.403234E3,-1.1596075E-2,2.21E-1,6.511E-1,3.0235E3,2.1360207E-3,4.528E-1,-5.3365557E-3,-8.2360633E-4,3.090719E3,4.1938517E-3,2.57236E3,2.560688E3,-2.273164E-3,-4.066675E-3,-1.049622E-2,-3.913245E-3,1.686E-1,-1.1055697E-2,3.010703E3,5.888E-1,3.005734E3,-6.1822776E-3,-1.0617302E-3,6.210327E-4,3.1382423E-3,5.495E-1,7.909581E-3,7.716E-1,5.728E-1,7.087E-1,-8.164833E-3,1.09E2,1.927E-1,-9.939321E-3,-4.5676604E-3,-1.6426834E-3,5.832E-1,-9.131774E-4,5.641914E-4,1.8531954E-3,-1.17224185E-2,-2.3888461E-3,8.501E-1,-7.069032E-3,7.849E-1,2.7E1,-2.3922399E-3,-5.593858E-3,2.925484E3,3.025E-1,-3.4794244E-3,-2.340459E-3,7.851018E-3,-1.1641141E-3,5.2322997E-3,1.0414557E-3,5.8609378E-3,3.245E-1,-5.04119E-3,-9.832965E-3,-4.6046805E-3,-1.6640801E-3,7.3689907E-3,1.00432485E-2],"split_indices":[0,0,4,0,4,4,3,4,3,0,3,2,3,0,3,1,0,1,3,3,1,3,0,4,0,0,0,0,0,0,4,0,3,1,4,0,3,0,0,4,0,4,4,0,0,0,0,1,0,4,2,4,0,0,0,0,1,0,3,1,3,0,0,3,0,0,0,2,0,0,0,0,0,2,0,1,0,0,0,4,1,0,0,0,0,0,0,0,2,0,0,0,0,0,0],"split_type":[0,0,0,0,0,0,0,0,0,0,0,0,0,0,0,0,0,0,0,0,0,0,0,0,0,0,0,0,0,0,0,0,0,0,0,0,0,0,0,0,0,0,0,0,0,0,0,0,0,0,0,0,0,0,0,0,0,0,0,0,0,0,0,0,0,0,0,0,0,0,0,0,0,0,0,0,0,0,0,0,0,0,0,0,0,0,0,0,0,0,0,0,0,0,0],"sum_hessian":[7.32E2,2.7E2,4.62E2,1.8E1,2.52E2,3.4E2,1.22E2,1.9E2,6.2E1,1.49E2,1.91E2,4.4E1,7.8E1,1.6E1,1.74E2,4.4E1,1.8E1,4.3E1,1.06E2,1.45E2,4.6E1,3E1,1.4E1,5.8E1,2E1,1.8E1,1.56E2,1.4E1,3E1,2E1,2.3E1,2.6E1,8E1,9.3E1,5.2E1,1.5E1,3.1E1,1.2E1,1.8E1,4.1E1,1.7E1,3.4E1,1.22E2,1E1,1E1,1.3E1,1E1,6.3E1,1.7E1,7.2E1,2.1E1,3.9E1,1.3E1,1.9E1,1.2E1,1.2E1,2.9E1,1E1,2.4E1,4.2E1,8E1,3.9E1,2.4E1,5.6E1,1.6E1,1.1E1,1E1,2.8E1,1.1E1,1E1,1.9E1,1.1E1,1.3E1,2.9E1,1.3E1,2.8E1,5.2E1,1.1E1,1.3E1,2.7E1,2.9E1,1E1,1.8E1,1.4E1,1.5E1,1.7E1,1.1E1,1E1,4.2E1,1.2E1,1.5E1,1.9E1,1E1,2.5E1,1.7E1],"tree_param":{"num_deleted":"0","num_feature":"5","num_nodes":"95","size_leaf_vector":"1"}},{"base_weights":[5.6101667E-4,-1.6596148E-2,3.6663216E-2,1.3784472E-2,-1.8851705E-2,1.5757263E-2,3.165777E-2,-4.494255E-2,-1.2450395E-2,2.7750821E-3,4.1694306E-2,-1.3957593E-2,-3.7696596E-2,-2.3812905E-2,-5.98588E-4,-5.2485615E-3,1.1790194E-2,2.8984953E-2,5.435794E-2,-8.068598E-3,-3.0517183E-2,5.0218594E-3,-2.687867E-2,-1.3911206E-2,5.3001177E-3,2.9359594E-2,-6.5428624E-3,5.4374228E-5,3.3964794E-2,5.1616714E-3,6.0434494E-2,-5.8686445E-3,-2.2743084E-3,-1.8127194E-2,-3.5528235E-2,2.5881683E-3,-9.041623E-3,2.897772E-3,5.2454136E-3,6.6615166E-3,2.5636484E-3,2.36755E-2,3.8277324E-2,7.130122E-3,6.754997E-2,7.2080985E-4,-2.0847434E-2,-4.1764602E-2,-2.0540105E-2,1.5867686E-2,-2.4044786E-3,1.7101424E-4,3.2853503E-3,4.934675E-3,2.6836158E-3,4.649229E-3,7.36881E-3,1.3248013E-2,9.358081E-3,-7.7574165E-3,-1.63932E-2,-4.4615235E-2,-4.024843E-3,-4.895656E-3,-1.7712025E-3,4.12629E-3,8.577448E-4,-6.423085E-3,3.8534373E-3,-2.102571E-2,-4.6984884E-3,-5.1146797E-3,-4.9276322E-2,1.9551214E-4,-9.969866E-3,1.9170025E-3,2.3022767E-3,-4.361887E-3,-3.931225E-4,-3.0322145E-3,1.3333862E-3,-1.0339673E-2,-7.203483E-3,-2.092682E-3,-1.0939239E-3,-1.0241005E-3,6.235748E-4],"categories":[],"categories_nodes":[],"categories_segments":[],"categories_sizes":[],"default_left":[0,0,0,0,0,0,0,0,0,0,0,0,0,0,0,0,0,0,0,0,0,0,0,0,0,0,0,0,0,0,0,0,0,0,0,0,0,0,0,0,0,0,0,0,0,0,0,0,0,0,0,0,0,0,0,0,0,0,0,0,0,0,0,0,0,0,0,0,0,0,0,0,0,0,0,0,0,0,0,0,0,0,0,0,0,0,0],"id":12,"left_children":[1,3,5,-1,7,-1,9,11,13,15,17,-1,19,21,23,-1,25,27,29,-1,31,-1,33,35,37,39,-1,-1,41,-1,43,-1,-1,45,47,49,-1,51,-1,-1,-1,53,55,-1,57,-1,59,61,63,65,-1,67,-1,-1,-1,-1,-1,-1,-1,-1,69,71,-1,-1,-1,-1,-1,73,75,77,79,-1,81,-1,83,85,-1,-1,-1,-1,-1,-1,-1,-1,-1,-1,-1],"loss_changes":[4.4224876E-1,1.0930069E-1,6.287381E-2,0E0,7.860583E-2,0E0,6.162919E-2,2.2604793E-2,5.142826E-2,1.7552514E-2,2.3854017E-2,0E0,4.4857413E-3,3.2922365E-2,1.4836848E-2,0E0,4.1278202E-2,1.1549935E-2,9.333625E-3,0E0,3.2931566E-3,0E0,1.3359815E-2,3.8365167E-2,8.074219E-3,4.3374915E-3,0E0,0E0,2.1554977E-3,0E0,4.9283803E-3,0E0,0E0,5.822532E-3,7.7415407E-3,9.658832E-3,0E0,5.4971376E-3,0E0,0E0,0E0,5.4152776E-4,1.5776157E-3,0E0,1.2363344E-3,0E0,8.730851E-3,2.1761581E-3,2.1898476E-3,2.1234984E-3,0E0,2.5743886E-3,0E0,0E0,0E0,0E0,0E0,0E0,0E0,0E0,3.8560461E-3,2.0602793E-3,0E0,0E0,0E0,0E0,0E0,1.0342558E-3,1.2720494E-3,4.753977E-3,3.8595875E-3,0E0,4.1554123E-4,0E0,1.4284672E-4,8.583758E-4,0E0,0E0,0E0,0E0,0E0,0E0,0E0,0E0,0E0,0E0,0E0],"parents":[2147483647,0,0,1,1,2,2,4,4,6,6,7,7,8,8,9,9,10,10,12,12,13,13,14,14,16,16,17,17,18,18,20,20,22,22,23,23,24,24,25,25,28,28,30,30,33,33,34,34,35,35,37,37,41,41,42,42,44,44,46,46,47,47,48,48,49,49,51,51,60,60,61,61,67,67,68,68,69,69,70,70,72,72,74,74,75,75],"right_children":[2,4,6,-1,8,-1,10,12,14,16,18,-1,20,22,24,-1,26,28,30,-1,32,-1,34,36,38,40,-1,-1,42,-1,44,-1,-1,46,48,50,-1,52,-1,-1,-1,54,56,-1,58,-1,60,62,64,66,-1,68,-1,-1,-1,-1,-1,-1,-1,-1,70,72,-1,-1,-1,-1,-1,74,76,78,80,-1,82,-1,84,86,-1,-1,-1,-1,-1,-1,-1,-1,-1,-1,-1],"split_conditions":[6.118E-1,1.6E1,1E1,1.3784472E-2,1.871E-1,1.5757263E-2,3.107141E3,2.37389E3,3.425E-1,2.459297E3,7.931E-1,-1.3957593E-2,9.77E-2,6.2E1,2.619578E3,-5.2485615E-3,6.253E-1,2.7E1,1.8E1,-8.068598E-3,2.519E-1,5.0218594E-3,1.23E2,6.151E-1,8.236E-1,4.478E-1,-6.5428624E-3,5.4374228E-5,6.643E-1,5.1616714E-3,3.195125E3,-5.8686445E-3,-2.2743084E-3,1.234E-1,2.045E-1,6E1,-9.041623E-3,5.621E-1,5.2454136E-3,6.6615166E-3,2.5636484E-3,6.2E1,3.171906E3,7.130122E-3,8.335E-1,7.2080985E-4,2.888719E3,2.995047E3,4.329E-1,4.478E-1,-2.4044786E-3,4.2E-1,3.2853503E-3,4.934675E-3,2.6836158E-3,4.649229E-3,7.36881E-3,1.3248013E-2,9.358081E-3,-7.7574165E-3,1.13E2,2.633E-1,-4.024843E-3,-4.895656E-3,-1.7712025E-3,4.12629E-3,8.577448E-4,9.5E1,6.799E-1,7.484E-1,3.323E-1,-5.1146797E-3,3.992E-1,1.9551214E-4,1.05E2,3.309E-1,2.3022767E-3,-4.361887E-3,-3.931225E-4,-3.0322145E-3,1.3333862E-3,-1.0339673E-2,-7.203483E-3,-2.092682E-3,-1.0939239E-3,-1.0241005E-3,6.235748E-4],"split_indices":[3,0,0,0,1,0,4,4,3,4,3,0,1,0,4,0,1,0,0,0,3,0,0,1,1,1,0,0,3,0,4,0,0,3,3,0,0,3,0,0,0,0,4,0,1,0,4,4,1,1,0,3,0,0,0,0,0,0,0,0,0,1,0,0,0,0,0,0,2,2,1,0,1,0,0,2,0,0,0,0,0,0,0,0,0,0,0],"split_type":[0,0,0,0,0,0,0,0,0,0,0,0,0,0,0,0,0,0,0,0,0,0,0,0,0,0,0,0,0,0,0,0,0,0,0,0,0,0,0,0,0,0,0,0,0,0,0,0,0,0,0,0,0,0,0,0,0,0,0,0,0,0,0,0,0,0,0,0,0,0,0,0,0,0,0,0,0,0,0,0,0,0,0,0,0,0,0],"sum_hessian":[7.12E2,4.83E2,2.29E2,1E1,4.73E2,1.7E1,2.12E2,9.2E1,3.81E2,5.5E1,1.57E2,1.3E1,7.9E1,1.94E2,1.87E2,1.1E1,4.4E1,8E1,7.7E1,3E1,4.9E1,1E1,1.84E2,5.7E1,1.3E2,3.3E1,1.1E1,1.2E1,6.8E1,1.7E1,6E1,3.8E1,1.1E1,9.3E1,9.1E1,4.1E1,1.6E1,1.2E2,1E1,1.8E1,1.5E1,2.2E1,4.6E1,1.9E1,4.1E1,1E1,8.3E1,6.3E1,2.8E1,2.3E1,1.8E1,1.04E2,1.6E1,1.1E1,1.1E1,1.8E1,2.8E1,1.8E1,2.3E1,1.1E1,7.2E1,5.3E1,1E1,1.4E1,1.4E1,1.2E1,1.1E1,3.7E1,6.7E1,5.1E1,2.1E1,1.5E1,3.8E1,1.2E1,2.5E1,5.7E1,1E1,4E1,1.1E1,1E1,1.1E1,1E1,2.8E1,1.3E1,1.2E1,1E1,4.7E1],"tree_param":{"num_deleted":"0","num_feature":"5","num_nodes":"87","size_leaf_vector":"1"}},{"base_weights":[-8.1200356E-4,-1.6021168E-2,3.0433537E-2,-2.728999E-2,-3.0168628E-3,7.662305E-2,2.5886204E-2,2.8804333E-3,-2.9107427E-2,-2.2815436E-2,4.5886794E-3,1.6245225E-2,8.313051E-3,-3.5990516E-3,2.9453496E-2,-3.716166E-2,-2.228354E-2,5.074519E-4,-2.7656235E-2,5.6662746E-3,2.3160148E-3,-3.1171043E-3,3.358669E-2,-3.371609E-2,-1.11933695E-2,-2.4166368E-2,-8.3643786E-4,-7.922241E-3,-2.095205E-2,-6.2433566E-4,2.1247998E-2,-5.8105346E-3,3.6683085E-3,3.0392895E-2,1.2216666E-2,1.6460222E-3,-3.8400404E-2,-2.729501E-2,-1.6202802E-2,-1.0122149E-2,-7.4427496E-3,-6.8653333E-3,5.0185695E-3,1.6957221E-3,5.1144245E-3,3.3328716E-2,6.2955916E-4,-9.355604E-3,-3.1064192E-2,-2.0850752E-2,-3.341185E-2,-1.0078041E-2,-4.8070983E-3,4.1653795E-4,-3.3418962E-3,-3.1373226E-3,-1.1995966E-2,-2.5168261E-3,9.681631E-3,1.2591077E-2,2.89237E-2,-5.7458193E-3,-2.581466E-2,-2.446662E-2,-1.6435873E-3,-9.357016E-3,-1.994367E-2,-2.1452836E-3,-8.3753373E-4,-1.2420185E-3,-7.224278E-4,2.3549159E-4,-3.5751464E-3,6.618526E-3,2.649549E-3,9.8387515E-3,3.5683934E-2,-4.960245E-3,-2.981013E-3,-4.6558757E-3,-2.8637224E-3,-4.6396432E-3,-8.132553E-4,-4.5895204E-4,1.1844178E-4,1.6677427E-3,3.5920248E-3,-6.6231546E-4,1.7164133E-2,2.605398E-2,4.0257383E-2,1.8936375E-3,-7.377974E-4,1.4917288E-3,3.7087323E-3,4.903717E-3,3.1915067E-3,4.9337293E-3,7.225232E-3],"categories":[],"categories_nodes":[],"categories_segments":[],"categories_sizes":[],"default_left":[0,0,0,0,0,0,0,0,0,0,0,0,0,0,0,0,0,0,0,0,0,0,0,0,0,0,0,0,0,0,0,0,0,0,0,0,0,0,0,0,0,0,0,0,0,0,0,0,0,0,0,0,0,0,0,0,0,0,0,0,0,0,0,0,0,0,0,0,0,0,0,0,0,0,0,0,0,0,0,0,0,0,0,0,0,0,0,0,0,0,0,0,0,0,0,0,0,0,0],"id":13,"left_children":[1,3,5,7,9,11,13,-1,15,17,19,-1,-1,-1,21,23,25,-1,27,-1,29,31,33,35,-1,37,-1,-1,39,41,43,-1,-1,45,-1,-1,47,49,51,53,-1,55,57,-1,-1,59,-1,-1,61,63,65,67,-1,-1,-1,69,71,-1,73,-1,75,-1,77,79,-1,-1,81,-1,-1,-1,83,-1,-1,85,-1,87,89,-1,-1,-1,-1,-1,-1,-1,-1,-1,91,-1,93,95,97,-1,-1,-1,-1,-1,-1,-1,-1],"loss_changes":[3.4834757E-1,7.216346E-2,4.8425898E-2,2.1825299E-2,3.4737837E-2,6.673664E-3,3.777133E-2,0E0,1.3132051E-2,8.088507E-3,1.0989928E-2,0E0,0E0,0E0,2.77019E-2,9.445563E-3,4.4401586E-3,0E0,6.0825013E-3,0E0,8.697266E-3,1.9627336E-2,2.0563334E-2,2.178222E-2,0E0,2.697058E-3,0E0,0E0,1.0185963E-2,4.824015E-3,1.8497109E-3,0E0,0E0,1.3172224E-2,0E0,0E0,1.0343999E-2,2.811581E-3,2.6045144E-3,3.748585E-3,0E0,1.2056234E-3,6.8632877E-3,0E0,0E0,2.5914669E-2,0E0,0E0,2.613142E-4,1.6002133E-3,1.2116954E-2,3.072978E-4,0E0,0E0,0E0,3.9593293E-4,3.3940028E-3,0E0,9.980123E-4,0E0,1.771155E-2,0E0,3.773179E-4,3.496483E-4,0E0,0E0,3.2344311E-3,0E0,0E0,0E0,7.660012E-5,0E0,0E0,3.7570356E-4,0E0,3.9046356E-3,3.4874678E-3,0E0,0E0,0E0,0E0,0E0,0E0,0E0,0E0,0E0,1.4616873E-3,0E0,8.2339766E-4,2.4473667E-4,7.8965724E-4,0E0,0E0,0E0,0E0,0E0,0E0,0E0,0E0],"parents":[2147483647,0,0,1,1,2,2,3,3,4,4,5,5,6,6,8,8,9,9,10,10,14,14,15,15,16,16,18,18,20,20,21,21,22,22,23,23,25,25,28,28,29,29,30,30,33,33,36,36,37,37,38,38,39,39,41,41,42,42,45,45,48,48,49,49,50,50,51,51,55,55,56,56,58,58,60,60,62,62,63,63,66,66,70,70,73,73,75,75,76,76,86,86,88,88,89,89,90,90],"right_children":[2,4,6,8,10,12,14,-1,16,18,20,-1,-1,-1,22,24,26,-1,28,-1,30,32,34,36,-1,38,-1,-1,40,42,44,-1,-1,46,-1,-1,48,50,52,54,-1,56,58,-1,-1,60,-1,-1,62,64,66,68,-1,-1,-1,70,72,-1,74,-1,76,-1,78,80,-1,-1,82,-1,-1,-1,84,-1,-1,86,-1,88,90,-1,-1,-1,-1,-1,-1,-1,-1,-1,92,-1,94,96,98,-1,-1,-1,-1,-1,-1,-1,-1],"split_conditions":[6.118E-1,3.425E-1,9E0,3.5E1,2.467328E3,3.236515E3,2.459297E3,2.8804333E-3,2.896063E3,4.2E1,2.9E1,1.6245225E-2,8.313051E-3,-3.5990516E-3,1.7E1,2.069E-1,7.457E-1,5.074519E-4,6.2E1,5.6662746E-3,7.305E-1,8.239E-1,9.125E-1,2.440547E3,-1.11933695E-2,2.774E-1,-8.3643786E-4,-7.922241E-3,8.7E1,4.603E-1,4.78E-1,-5.8105346E-3,3.6683085E-3,7.873E-1,1.2216666E-2,1.6460222E-3,4.42E-2,2.962609E3,3.034968E3,4.372E-1,-7.4427496E-3,3.065953E3,4E1,1.6957221E-3,5.1144245E-3,4.478E-1,6.2955916E-4,-9.355604E-3,1.089E-1,8.097E-1,5.432E-1,3.002641E3,-4.8070983E-3,4.1653795E-4,-3.3418962E-3,3.006203E3,8.5E1,-2.5168261E-3,5.621E-1,1.2591077E-2,6.829E-1,-5.7458193E-3,1.896E-1,1.927E-1,-1.6435873E-3,-9.357016E-3,6.222E-1,-2.1452836E-3,-8.3753373E-4,-1.2420185E-3,3.02214E3,2.3549159E-4,-3.5751464E-3,7.8E1,2.649549E-3,3.159172E3,3.186297E3,-4.960245E-3,-2.981013E-3,-4.6558757E-3,-2.8637224E-3,-4.6396432E-3,-8.132553E-4,-4.5895204E-4,1.1844178E-4,1.6677427E-3,4.754E-1,-6.6231546E-4,7.161E-1,8.184E-1,2.7E1,1.8936375E-3,-7.377974E-4,1.4917288E-3,3.7087323E-3,4.903717E-3,3.1915067E-3,4.9337293E-3,7.225232E-3],"split_indices":[3,3,0,0,4,4,4,0,4,0,0,0,0,0,0,3,1,0,0,0,2,3,3,4,0,3,0,0,0,3,3,0,0,2,0,0,3,4,4,3,0,4,0,0,0,1,0,0,3,2,1,4,0,0,0,4,0,0,3,0,3,0,1,3,0,0,2,0,0,0,4,0,0,0,0,4,4,0,0,0,0,0,0,0,0,0,1,0,1,1,0,0,0,0,0,0,0,0,0],"split_type":[0,0,0,0,0,0,0,0,0,0,0,0,0,0,0,0,0,0,0,0,0,0,0,0,0,0,0,0,0,0,0,0,0,0,0,0,0,0,0,0,0,0,0,0,0,0,0,0,0,0,0,0,0,0,0,0,0,0,0,0,0,0,0,0,0,0,0,0,0,0,0,0,0,0,0,0,0,0,0,0,0,0,0,0,0,0,0,0,0,0,0,0,0,0,0,0,0,0,0],"sum_hessian":[7.31E2,4.92E2,2.39E2,2.63E2,2.29E2,2E1,2.19E2,1E1,2.53E2,6.3E1,1.66E2,1E1,1E1,1.5E1,2.04E2,1.14E2,1.39E2,1E1,5.3E1,1.1E1,1.55E2,2.3E1,1.81E2,1.04E2,1E1,1.25E2,1.4E1,1.2E1,4.1E1,1.35E2,2E1,1E1,1.3E1,1.69E2,1.2E1,1E1,9.4E1,8.8E1,3.7E1,2.9E1,1.2E1,6.4E1,7.1E1,1E1,1E1,1.52E2,1.7E1,2.6E1,6.8E1,4.5E1,4.3E1,2.6E1,1.1E1,1.3E1,1.6E1,3.8E1,2.6E1,1.3E1,5.8E1,1.3E1,1.39E2,3.9E1,2.9E1,3.3E1,1.2E1,1.5E1,2.8E1,1.6E1,1E1,1.3E1,2.5E1,1.1E1,1.5E1,4E1,1.8E1,3.7E1,1.02E2,1.8E1,1.1E1,2.1E1,1.2E1,1.8E1,1E1,1E1,1.5E1,1.8E1,2.2E1,1.3E1,2.4E1,3.5E1,6.7E1,1.1E1,1.1E1,1E1,1.4E1,2.2E1,1.3E1,1.6E1,5.1E1],"tree_param":{"num_deleted":"0","num_feature":"5","num_nodes":"99","size_leaf_vector":"1"}},{"base_weights":[1.0549102E-3,-1.3235836E-2,2.5650604E-2,9.218012E-3,-2.0506045E-2,2.8129905E-2,-2.6749535E-3,1.3565877E-2,5.354425E-4,-1.0867895E-2,-1.7985638E-2,1.1402019E-2,2.5188746E-2,-3.7534137E-3,3.1964642E-3,2.0040238E-2,-7.713562E-3,-2.694145E-2,-1.1527636E-2,-1.7268332E-3,2.8123451E-2,-6.7356373E-6,7.773453E-3,-9.6703635E-4,-6.850277E-3,-6.4432374E-3,-2.3993136E-2,-2.7275505E-2,-8.165564E-3,2.1983419E-2,3.926127E-2,3.0711484E-3,-6.1631957E-3,-2.5721895E-2,-1.9020586E-3,-6.446516E-3,-2.1921606E-3,-1.2825601E-2,2.7808866E-3,1.0267822E-2,1.8077858E-2,4.7352407E-3,4.4431996E-2,-1.1154255E-2,1.3652893E-3,-6.148074E-3,-2.4028763E-2,-1.5225862E-2,-3.490242E-3,3.433907E-3,-3.6782909E-3,-3.3542505E-3,2.1891857E-2,6.64923E-3,9.129387E-3,-2.958125E-3,-7.6045506E-3,-2.6793191E-2,-1.7224693E-3,-1.2913182E-2,-4.167887E-3,-1.6702317E-3,3.0782344E-4,-1.223724E-2,1.5311199E-3,7.812837E-3,2.5715888E-2,-7.5030036E-4,-1.8784308E-3,-2.3301149E-2,-6.42609E-3,-7.540329E-3,-1.9949296E-2,-3.0385943E-3,-7.940673E-4,2.5188448E-3,-8.928615E-5,1.4102047E-2,2.8832668E-2,-4.2319186E-3,-2.6267574E-3,-1.8162401E-3,-2.2370736E-4,-1.8836695E-3,-5.2334676E-3,1.2145098E-3,3.3053048E-3,3.951999E-3,6.1923107E-3],"categories":[],"categories_nodes":[],"categories_segments":[],"categories_sizes":[],"default_left":[0,0,0,0,0,0,0,0,0,0,0,0,0,0,0,0,0,0,0,0,0,0,0,0,0,0,0,0,0,0,0,0,0,0,0,0,0,0,0,0,0,0,0,0,0,0,0,0,0,0,0,0,0,0,0,0,0,0,0,0,0,0,0,0,0,0,0,0,0,0,0,0,0,0,0,0,0,0,0,0,0,0,0,0,0,0,0,0,0],"id":14,"left_children":[1,3,5,7,9,11,13,-1,15,-1,17,-1,19,-1,-1,21,23,25,27,-1,29,-1,-1,31,-1,-1,33,35,37,39,41,-1,43,45,-1,-1,-1,47,49,-1,51,-1,53,55,-1,-1,57,59,61,-1,63,-1,65,-1,-1,-1,67,69,-1,71,-1,-1,-1,73,-1,75,77,-1,-1,79,-1,81,83,-1,-1,-1,-1,85,87,-1,-1,-1,-1,-1,-1,-1,-1,-1,-1],"loss_changes":[2.50601E-1,7.381214E-2,1.8474877E-2,6.89494E-2,3.6847994E-2,2.6490211E-2,9.828211E-3,0E0,1.6244097E-2,0E0,1.8428497E-2,0E0,2.381754E-2,0E0,0E0,1.582238E-2,1.581068E-2,3.6315173E-3,9.83692E-3,0E0,1.3429686E-2,0E0,0E0,6.117491E-3,0E0,0E0,2.1167472E-3,4.7174096E-3,8.095382E-3,1.9856192E-2,2.9200092E-3,0E0,3.5154913E-3,8.915588E-4,0E0,0E0,0E0,2.4340693E-3,5.5545936E-3,0E0,1.8726356E-2,0E0,1.5050918E-4,6.9225533E-4,0E0,0E0,2.9985458E-3,1.6331673E-3,8.434388E-4,0E0,4.0550577E-3,0E0,5.9905313E-3,0E0,0E0,0E0,2.3094856E-4,1.955282E-3,0E0,2.6092688E-3,0E0,0E0,0E0,8.8258344E-4,0E0,1.5680521E-3,2.8511956E-3,0E0,0E0,4.3730065E-4,0E0,8.606105E-4,2.6874486E-3,0E0,0E0,0E0,0E0,6.6319713E-4,2.1147989E-3,0E0,0E0,0E0,0E0,0E0,0E0,0E0,0E0,0E0,0E0],"parents":[2147483647,0,0,1,1,2,2,3,3,4,4,5,5,6,6,8,8,10,10,12,12,15,15,16,16,17,17,18,18,20,20,23,23,26,26,27,27,28,28,29,29,30,30,32,32,33,33,37,37,38,38,40,40,42,42,43,43,46,46,47,47,48,48,50,50,52,52,56,56,57,57,59,59,63,63,65,65,66,66,69,69,71,71,72,72,77,77,78,78],"right_children":[2,4,6,8,10,12,14,-1,16,-1,18,-1,20,-1,-1,22,24,26,28,-1,30,-1,-1,32,-1,-1,34,36,38,40,42,-1,44,46,-1,-1,-1,48,50,-1,52,-1,54,56,-1,-1,58,60,62,-1,64,-1,66,-1,-1,-1,68,70,-1,72,-1,-1,-1,74,-1,76,78,-1,-1,80,-1,82,84,-1,-1,-1,-1,86,88,-1,-1,-1,-1,-1,-1,-1,-1,-1,-1],"split_conditions":[5.832E-1,4.564E-1,8.16E-1,2.4E1,4.3E1,3.582E-1,9.144E-1,1.3565877E-2,6.4E1,-1.0867895E-2,2.163E-1,1.1402019E-2,2.521985E3,-3.7534137E-3,3.1964642E-3,4.3E1,6.79E-1,5.06E-2,2.394734E3,-1.7268332E-3,3.243422E3,-6.7356373E-6,7.773453E-3,8E1,-6.850277E-3,-6.4432374E-3,6.749E-1,8.378E-1,4.311E-1,2.673E3,7.819E-1,3.0711484E-3,4.445E-1,6.222E-1,-1.9020586E-3,-6.446516E-3,-2.1921606E-3,1.23E2,3.543E-1,1.0267822E-2,1.7E1,4.7352407E-3,9.578E-1,2.900422E3,1.3652893E-3,-6.148074E-3,3.992E-1,7.161E-1,3.010703E3,3.433907E-3,5.614E-1,-3.3542505E-3,6.237E-1,6.64923E-3,9.129387E-3,-2.958125E-3,2.642E-1,1.5E2,-1.7224693E-3,1.04E2,-4.167887E-3,-1.6702317E-3,3.0782344E-4,8.6E1,1.5311199E-3,6.083E-1,3.159172E3,-7.5030036E-4,-1.8784308E-3,2.538E-1,-6.42609E-3,4.59E-1,3.002641E3,-3.0385943E-3,-7.940673E-4,2.5188448E-3,-8.928615E-5,7.4E1,8.156E-1,-4.2319186E-3,-2.6267574E-3,-1.8162401E-3,-2.2370736E-4,-1.8836695E-3,-5.2334676E-3,1.2145098E-3,3.3053048E-3,3.951999E-3,6.1923107E-3],"split_indices":[3,2,2,0,0,1,2,0,0,0,3,0,4,0,0,0,1,3,4,0,4,0,0,0,0,0,1,2,3,4,3,0,3,2,0,0,0,0,1,0,0,0,3,4,0,0,1,1,4,0,1,0,3,0,0,0,2,0,0,0,0,0,0,0,0,3,4,0,0,1,0,1,4,0,0,0,0,0,3,0,0,0,0,0,0,0,0,0,0],"split_type":[0,0,0,0,0,0,0,0,0,0,0,0,0,0,0,0,0,0,0,0,0,0,0,0,0,0,0,0,0,0,0,0,0,0,0,0,0,0,0,0,0,0,0,0,0,0,0,0,0,0,0,0,0,0,0,0,0,0,0,0,0,0,0,0,0,0,0,0,0,0,0,0,0,0,0,0,0,0,0,0,0,0,0,0,0,0,0,0,0],"sum_hessian":[7.11E2,4.5E2,2.61E2,1.1E2,3.4E2,2.4E2,2.1E1,1.1E1,9.9E1,1.7E1,3.23E2,1.5E1,2.25E2,1.1E1,1E1,2.9E1,7E1,1.34E2,1.89E2,1.7E1,2.08E2,1.7E1,1.2E1,5.9E1,1.1E1,2.5E1,1.09E2,3.2E1,1.57E2,1.36E2,7.2E1,1.2E1,4.7E1,9.5E1,1.4E1,1.7E1,1.5E1,1.1E2,4.7E1,1.1E1,1.25E2,2.5E1,4.7E1,3.5E1,1.2E1,1E1,8.5E1,8.7E1,2.3E1,1.2E1,3.5E1,1.1E1,1.14E2,3.5E1,1.2E1,1.1E1,2.4E1,7E1,1.5E1,7.2E1,1.5E1,1E1,1.3E1,2.1E1,1.4E1,2.5E1,8.9E1,1.4E1,1E1,5.6E1,1.4E1,4.2E1,3E1,1.1E1,1E1,1.3E1,1.2E1,2E1,6.9E1,4.3E1,1.3E1,2.7E1,1.5E1,1.8E1,1.2E1,1E1,1E1,4.4E1,2.5E1],"tree_param":{"num_deleted":"0","num_feature":"5","num_nodes":"89","size_leaf_vector":"1"}},{"base_weights":[-9.0964464E-4,-1.23940585E-2,1.3081992E-2,9.219589E-3,-1.46701485E-2,6.8345685E-3,3.5385832E-2,-9.999223E-3,-1.3166485E-2,-1.0460269E-2,1.1943624E-2,3.1623695E-2,8.845804E-3,7.2965724E-3,-1.4869681E-2,-2.1010032E-4,-9.105635E-3,1.2839685E-2,8.041822E-3,4.1812267E-3,6.1654076E-3,-2.4714196E-2,-8.79917E-3,-6.5665375E-3,1.1056885E-2,-1.6107053E-2,1.4602872E-2,-8.563216E-3,-2.2222698E-2,-1.2085961E-2,-4.4470374E-4,-3.5071068E-3,2.3212533E-2,-8.210154E-3,-3.0490223E-4,-5.2445577E-3,1.8550271E-2,2.0147264E-3,-2.527644E-2,-1.35807935E-2,2.1608212E-4,-2.6142597E-3,1.720195E-3,-2.09508E-3,8.522064E-3,4.407607E-3,-3.6707607E-3,-2.3025777E-3,2.2108624E-4,1.5684165E-2,7.730441E-3,-2.2115353E-2,-3.4877226E-2,-1.7147778E-2,-6.315259E-3,-5.3508915E-3,7.084195E-4,2.2670131E-2,1.1641387E-2,-1.822209E-2,-3.0085362E-2,-6.653514E-3,-4.089549E-3,-2.3111112E-2,-1.2662142E-2,-1.3564569E-2,2.145052E-3,-7.1738556E-4,-2.638564E-3,1.285383E-2,7.4715E-3,-1.5444051E-3,1.5095433E-2,-3.6172876E-3,-9.221049E-5,-6.9095814E-3,-1.9968143E-3,-3.027195E-3,-5.247577E-3,-1.6020931E-3,-3.9561135E-3,-3.384253E-3,-6.8206456E-4,2.735188E-4,-4.3300097E-4,-3.5221374E-4,5.2745086E-3,1.4784179E-3,3.2363078E-3],"categories":[],"categories_nodes":[],"categories_segments":[],"categories_sizes":[],"default_left":[0,0,0,0,0,0,0,0,0,0,0,0,0,0,0,0,0,0,0,0,0,0,0,0,0,0,0,0,0,0,0,0,0,0,0,0,0,0,0,0,0,0,0,0,0,0,0,0,0,0,0,0,0,0,0,0,0,0,0,0,0,0,0,0,0,0,0,0,0,0,0,0,0,0,0,0,0,0,0,0,0,0,0,0,0,0,0,0,0],"id":15,"left_children":[1,3,5,-1,7,9,11,-1,13,15,17,19,-1,-1,21,23,-1,-1,25,-1,-1,27,29,-1,31,33,35,-1,37,39,41,-1,43,-1,45,47,49,-1,51,53,-1,55,-1,-1,-1,-1,-1,-1,-1,57,-1,59,61,63,65,67,-1,69,71,73,75,-1,-1,77,79,81,-1,83,-1,85,-1,-1,87,-1,-1,-1,-1,-1,-1,-1,-1,-1,-1,-1,-1,-1,-1,-1,-1],"loss_changes":[1.1440971E-1,6.0708385E-2,4.4486783E-2,0E0,2.4797983E-2,2.2391729E-2,2.890721E-3,0E0,3.6139466E-2,2.6014503E-2,4.848685E-2,1.1413209E-3,0E0,0E0,2.117706E-2,2.1471923E-2,0E0,0E0,2.9546972E-2,0E0,0E0,7.775463E-3,6.1180685E-3,0E0,1.5241612E-2,2.071523E-2,1.15357675E-2,0E0,1.3471488E-2,3.2159518E-3,1.5112453E-3,0E0,2.8164908E-2,0E0,1.6606824E-2,1.4075553E-3,8.892119E-3,0E0,2.7491525E-3,3.6236178E-3,0E0,1.0324846E-3,0E0,0E0,0E0,0E0,0E0,0E0,0E0,2.8992724E-3,0E0,2.244424E-3,3.847219E-4,2.2753011E-3,6.955162E-3,1.8618602E-3,0E0,8.000948E-3,5.393721E-3,3.6892202E-3,5.1497463E-3,0E0,0E0,1.0915529E-3,1.7135814E-3,2.1735588E-3,0E0,1.2652842E-4,0E0,8.1151035E-3,0E0,0E0,1.4870623E-3,0E0,0E0,0E0,0E0,0E0,0E0,0E0,0E0,0E0,0E0,0E0,0E0,0E0,0E0,0E0,0E0],"parents":[2147483647,0,0,1,1,2,2,4,4,5,5,6,6,8,8,9,9,10,10,11,11,14,14,15,15,18,18,21,21,22,22,24,24,25,25,26,26,28,28,29,29,30,30,32,32,34,34,35,35,36,36,38,38,39,39,41,41,49,49,51,51,52,52,53,53,54,54,55,55,57,57,58,58,59,59,60,60,63,63,64,64,65,65,67,67,69,69,72,72],"right_children":[2,4,6,-1,8,10,12,-1,14,16,18,20,-1,-1,22,24,-1,-1,26,-1,-1,28,30,-1,32,34,36,-1,38,40,42,-1,44,-1,46,48,50,-1,52,54,-1,56,-1,-1,-1,-1,-1,-1,-1,58,-1,60,62,64,66,68,-1,70,72,74,76,-1,-1,78,80,82,-1,84,-1,86,-1,-1,88,-1,-1,-1,-1,-1,-1,-1,-1,-1,-1,-1,-1,-1,-1,-1,-1],"split_conditions":[4.901E-1,3.2E1,3.248593E3,9.219589E-3,4.3E1,4.013E-1,9.595E-1,-9.999223E-3,6.1E1,3.543E-1,2.442547E3,3.321844E3,8.845804E-3,7.2965724E-3,2.896063E3,2.400672E3,-9.105635E-3,1.2839685E-2,2.66789E3,4.1812267E-3,6.1654076E-3,6.7E1,3.694E-1,-6.5665375E-3,2.22E-1,2.2E1,5.621E-1,-8.563216E-3,7.6E1,7.457E-1,1.4E2,-3.5071068E-3,2.04E-1,-8.210154E-3,5.759E-1,4.483E-1,7.152E-1,2.0147264E-3,1.59E2,7.645E-1,2.1608212E-4,3.090719E3,1.720195E-3,-2.09508E-3,8.522064E-3,4.407607E-3,-3.6707607E-3,-2.3025777E-3,2.2108624E-4,2.776E-1,7.730441E-3,1.989E-1,4.42E-2,2.095E-1,1.38E2,3.069E3,7.084195E-4,1.736E-1,3.6E1,2.171E-1,8.405E-1,-6.653514E-3,-4.089549E-3,1.882E-1,3.039218E3,2.519E-1,2.145052E-3,2.928E-1,-2.638564E-3,6.722E-1,7.4715E-3,-1.5444051E-3,3.171906E3,-3.6172876E-3,-9.221049E-5,-6.9095814E-3,-1.9968143E-3,-3.027195E-3,-5.247577E-3,-1.6020931E-3,-3.9561135E-3,-3.384253E-3,-6.8206456E-4,2.735188E-4,-4.3300097E-4,-3.5221374E-4,5.2745086E-3,1.4784179E-3,3.2363078E-3],"split_indices":[3,0,4,0,0,1,3,0,0,1,4,4,0,0,4,4,0,0,4,0,0,0,3,0,2,0,3,0,0,1,0,0,1,0,1,2,2,0,0,2,0,4,0,0,0,0,0,0,0,2,0,3,3,3,0,4,0,2,0,1,2,0,0,3,4,3,0,2,0,1,0,0,4,0,0,0,0,0,0,0,0,0,0,0,0,0,0,0,0],"split_type":[0,0,0,0,0,0,0,0,0,0,0,0,0,0,0,0,0,0,0,0,0,0,0,0,0,0,0,0,0,0,0,0,0,0,0,0,0,0,0,0,0,0,0,0,0,0,0,0,0,0,0,0,0,0,0,0,0,0,0,0,0,0,0,0,0,0,0,0,0,0,0,0,0,0,0,0,0,0,0,0,0,0,0,0,0,0,0,0,0],"sum_hessian":[7.1E2,3.9E2,3.2E2,1.2E1,3.78E2,2.51E2,6.9E1,1.1E1,3.67E2,5.7E1,1.94E2,5.9E1,1E1,1E1,3.57E2,4.7E1,1E1,1E1,1.84E2,2.8E1,3.1E1,1.35E2,2.22E2,1E1,3.7E1,3.9E1,1.45E2,1E1,1.25E2,1.59E2,6.3E1,1E1,2.7E1,1.2E1,2.7E1,2.4E1,1.21E2,1E1,1.15E2,1.43E2,1.6E1,5.3E1,1E1,1.2E1,1.5E1,1.2E1,1.5E1,1E1,1.4E1,1.11E2,1E1,8.9E1,2.6E1,9.5E1,4.8E1,3.8E1,1.5E1,3.9E1,7.2E1,6.2E1,2.7E1,1.6E1,1E1,3.9E1,5.6E1,3.5E1,1.3E1,2.7E1,1.1E1,2.8E1,1.1E1,1E1,6.2E1,5.2E1,1E1,1.6E1,1.1E1,2.6E1,1.3E1,4.5E1,1.1E1,2E1,1.5E1,1.2E1,1.5E1,1.6E1,1.2E1,2.6E1,3.6E1],"tree_param":{"num_deleted":"0","num_feature":"5","num_nodes":"89","size_leaf_vector":"1"}},{"base_weights":[5.1268784E-4,1.6558507E-2,-1.0883408E-2,4.469361E-2,1.1691967E-2,-1.7342897E-2,8.4339804E-4,2.1941774E-2,7.186661E-3,5.230536E-3,2.3467055E-2,-3.0155051E-2,-1.5280051E-2,-1.6671458E-2,6.213368E-3,-5.2948506E-3,5.0470354E-3,-3.3234016E-3,1.4476209E-2,-5.025919E-4,2.7237074E-2,-1.7969731E-2,-8.061812E-3,-1.6362917E-2,1.336911E-3,-2.901397E-3,-6.231774E-3,3.5013128E-3,4.864309E-3,-5.248307E-3,3.019277E-3,3.5997417E-2,2.6094762E-3,2.3232473E-2,6.9341334E-3,-9.6471515E-4,-4.8175766E-3,-1.9878829E-2,-1.0985371E-2,1.4895935E-3,-2.599213E-3,-3.5711003E-3,9.0501E-3,-1.8057778E-2,1.1638863E-2,1.1585657E-2,1.1626488E-3,1.25637045E-2,-5.7184882E-3,1.908192E-2,5.053377E-3,-1.7727597E-2,-6.4421985E-3,-7.7037225E-3,-2.1401087E-2,-7.239243E-3,-2.0029068E-4,6.689824E-3,2.9447598E-3,-5.0444677E-3,-7.431894E-4,6.805642E-3,6.8570126E-4,1.3728219E-3,2.537224E-3,5.677607E-4,-2.4238538E-3,2.3440363E-2,1.0463347E-3,-1.9578347E-2,-3.66683E-4,-1.1925163E-2,8.842542E-4,-5.4305405E-3,-1.4286719E-3,-5.141713E-4,-1.869806E-3,6.176544E-4,-9.186783E-4,3.4477978E-3,1.9678713E-3,-3.996752E-3,1.0283144E-2,2.5922814E-3,5.845683E-3,-1.0220697E-2,-2.1853318E-2,-9.2260605E-3,-3.3442446E-3,-1.1663516E-3,1.5604536E-3,9.910756E-4,2.052909E-4,6.114982E-4,2.3117953E-3,-2.2535282E-3,-9.2453347E-4,-1.6994284E-2,-2.677191E-2,-2.2768287E-3,-6.5407524E-4,-1.6042588E-3,-3.1997373E-3,-6.0054897E-3,-3.8134926E-3],"categories":[],"categories_nodes":[],"categories_segments":[],"categories_sizes":[],"default_left":[0,0,0,0,0,0,0,0,0,0,0,0,0,0,0,0,0,0,0,0,0,0,0,0,0,0,0,0,0,0,0,0,0,0,0,0,0,0,0,0,0,0,0,0,0,0,0,0,0,0,0,0,0,0,0,0,0,0,0,0,0,0,0,0,0,0,0,0,0,0,0,0,0,0,0,0,0,0,0,0,0,0,0,0,0,0,0,0,0,0,0,0,0,0,0,0,0,0,0,0,0,0,0,0,0],"id":16,"left_children":[1,3,5,7,9,11,13,-1,15,17,19,21,23,25,27,-1,-1,29,31,-1,33,35,-1,37,-1,39,-1,41,-1,-1,43,45,47,49,-1,-1,-1,51,53,-1,-1,55,57,59,61,-1,-1,63,65,67,-1,69,-1,71,73,75,77,79,-1,-1,-1,-1,81,-1,-1,-1,-1,83,-1,85,-1,87,89,-1,-1,-1,-1,-1,-1,91,-1,-1,93,-1,-1,95,97,99,-1,-1,-1,-1,-1,-1,-1,-1,-1,101,103,-1,-1,-1,-1,-1,-1],"loss_changes":[1.2946202E-1,3.97321E-2,3.137479E-2,1.3776413E-1,1.9050404E-2,6.5959096E-3,1.4023614E-2,0E0,2.8410109E-2,1.3018362E-2,8.959953E-3,6.973874E-3,5.9696026E-3,9.747188E-3,6.9355723E-3,0E0,0E0,1.5333696E-2,2.0081596E-2,0E0,3.4340136E-3,2.8505973E-3,0E0,3.9789714E-3,0E0,3.3961514E-3,0E0,4.0743803E-3,0E0,0E0,1.3109134E-2,2.639458E-2,4.3825656E-3,1.2214445E-3,0E0,0E0,0E0,4.6110936E-3,2.9113963E-3,0E0,0E0,5.6732213E-4,1.0449383E-3,3.2989625E-3,1.6115323E-2,0E0,0E0,1.4478853E-4,2.3498796E-3,2.2060648E-3,0E0,3.4380518E-3,0E0,2.5482993E-3,2.687918E-3,3.2407523E-4,5.314053E-4,7.262961E-4,0E0,0E0,0E0,0E0,9.177177E-3,0E0,0E0,0E0,0E0,2.28424E-3,0E0,2.0757876E-3,0E0,8.3040725E-4,1.6453986E-3,0E0,0E0,0E0,0E0,0E0,0E0,1.5668565E-4,0E0,0E0,5.982178E-4,0E0,0E0,2.7326704E-4,1.6003996E-3,8.022357E-4,0E0,0E0,0E0,0E0,0E0,0E0,0E0,0E0,0E0,5.244063E-4,6.8441033E-4,0E0,0E0,0E0,0E0,0E0,0E0],"parents":[2147483647,0,0,1,1,2,2,3,3,4,4,5,5,6,6,8,8,9,9,10,10,11,11,12,12,13,13,14,14,17,17,18,18,20,20,21,21,23,23,25,25,27,27,30,30,31,31,32,32,33,33,37,37,38,38,41,41,42,42,43,43,44,44,47,47,48,48,49,49,51,51,53,53,54,54,55,55,56,56,57,57,62,62,67,67,69,69,71,71,72,72,79,79,82,82,85,85,86,86,87,87,97,97,98,98],"right_children":[2,4,6,8,10,12,14,-1,16,18,20,22,24,26,28,-1,-1,30,32,-1,34,36,-1,38,-1,40,-1,42,-1,-1,44,46,48,50,-1,-1,-1,52,54,-1,-1,56,58,60,62,-1,-1,64,66,68,-1,70,-1,72,74,76,78,80,-1,-1,-1,-1,82,-1,-1,-1,-1,84,-1,86,-1,88,90,-1,-1,-1,-1,-1,-1,92,-1,-1,94,-1,-1,96,98,100,-1,-1,-1,-1,-1,-1,-1,-1,-1,102,104,-1,-1,-1,-1,-1,-1],"split_conditions":[6.6E1,1.3E1,3.694E-1,7.819E-1,7.716E-1,2.802422E3,2.446062E3,2.1941774E-2,9.365E-1,4.3E1,2.71325E3,2.069E-1,7.792E-1,8.4E1,7.593E-1,-5.2948506E-3,5.0470354E-3,4.666E-1,5.3E1,-5.025919E-4,8.998E-1,1.2E2,-8.061812E-3,2.163E-1,1.336911E-3,4.445E-1,-6.231774E-3,4.692E-1,4.864309E-3,-5.248307E-3,2.2E1,2.488734E3,4.629E-1,3.301579E3,6.9341334E-3,-9.6471515E-4,-4.8175766E-3,3.010703E3,3.039218E3,1.4895935E-3,-2.599213E-3,4.346E-1,6.573E-1,4.729E-1,5.728E-1,1.1585657E-2,1.1626488E-3,3.309E-1,5.403E-1,8.563E-1,5.053377E-3,1.927E-1,-6.4421985E-3,4.11E-1,6.365E-1,3.01175E3,4.815E-1,4.693E-1,2.9447598E-3,-5.0444677E-3,-7.431894E-4,6.805642E-3,2.593531E3,1.3728219E-3,2.537224E-3,5.677607E-4,-2.4238538E-3,8.156E-1,1.0463347E-3,1.27E2,-3.66683E-4,2.986469E3,6.607E-1,-5.4305405E-3,-1.4286719E-3,-5.141713E-4,-1.869806E-3,6.176544E-4,-9.186783E-4,3.088328E3,1.9678713E-3,-3.996752E-3,7.917E-1,2.5922814E-3,5.845683E-3,1.01E2,2.059E-1,3.06E-1,-3.3442446E-3,-1.1663516E-3,1.5604536E-3,9.910756E-4,2.052909E-4,6.114982E-4,2.3117953E-3,-2.2535282E-3,-9.2453347E-4,6.06E-1,3.992E-1,-2.2768287E-3,-6.5407524E-4,-1.6042588E-3,-3.1997373E-3,-6.0054897E-3,-3.8134926E-3],"split_indices":[0,0,3,3,3,4,4,0,3,0,4,3,1,0,2,0,0,3,0,0,3,0,0,3,0,3,0,3,0,0,0,4,2,4,0,0,0,4,4,0,0,1,3,2,1,0,0,2,3,3,0,3,0,1,1,4,1,2,0,0,0,0,4,0,0,0,0,3,0,0,0,4,2,0,0,0,0,0,0,4,0,0,1,0,0,0,1,1,0,0,0,0,0,0,0,0,0,2,1,0,0,0,0,0,0],"split_type":[0,0,0,0,0,0,0,0,0,0,0,0,0,0,0,0,0,0,0,0,0,0,0,0,0,0,0,0,0,0,0,0,0,0,0,0,0,0,0,0,0,0,0,0,0,0,0,0,0,0,0,0,0,0,0,0,0,0,0,0,0,0,0,0,0,0,0,0,0,0,0,0,0,0,0,0,0,0,0,0,0,0,0,0,0,0,0,0,0,0,0,0,0,0,0,0,0,0,0,0,0,0,0,0,0],"sum_hessian":[7.06E2,2.93E2,4.13E2,4.2E1,2.51E2,2.66E2,1.47E2,1.2E1,3E1,1.63E2,8.8E1,3.5E1,2.31E2,3.4E1,1.13E2,1.1E1,1.9E1,8.5E1,7.8E1,1.1E1,7.7E1,2.2E1,1.3E1,2.21E2,1E1,2.1E1,1.3E1,1.02E2,1.1E1,1.5E1,7E1,2.7E1,5.1E1,6.2E1,1.5E1,1.1E1,1.1E1,1.32E2,8.9E1,1.1E1,1E1,4.5E1,5.7E1,2E1,5E1,1.2E1,1.5E1,2.3E1,2.8E1,4.1E1,2.1E1,1.2E2,1.2E1,6.9E1,2E1,2.1E1,2.4E1,4.6E1,1.1E1,1E1,1E1,1.3E1,3.7E1,1E1,1.3E1,1.4E1,1.4E1,3E1,1.1E1,1.07E2,1.3E1,4.6E1,2.3E1,1E1,1E1,1.1E1,1E1,1.4E1,1E1,2.9E1,1.7E1,1E1,2.7E1,1.9E1,1.1E1,2.2E1,8.5E1,3.6E1,1E1,1.2E1,1.1E1,1.3E1,1.6E1,1E1,1.7E1,1.2E1,1E1,4.5E1,4E1,1.9E1,1.7E1,1.1E1,3.4E1,1E1,3E1],"tree_param":{"num_deleted":"0","num_feature":"5","num_nodes":"105","size_leaf_vector":"1"}},{"base_weights":[6.751231E-4,-7.8014405E-3,1.6652763E-2,7.643631E-3,-9.087737E-3,1.9098295E-2,-1.0225898E-2,-1.6127618E-2,-3.5423443E-3,3.462981E-2,1.5109315E-2,-3.7080508E-3,4.3057208E-4,-4.9210424E-3,-1.4564406E-2,-2.1819314E-2,2.0057769E-3,-2.6821953E-3,4.954519E-2,-2.1152582E-3,1.734173E-2,-6.276666E-4,-1.5604118E-2,-3.099533E-2,-4.9780477E-3,5.675585E-3,-4.514449E-4,2.5102715E-3,6.694354E-2,1.1048746E-2,2.3140369E-2,-2.682474E-2,-1.3847214E-2,-8.456375E-3,-2.2276854E-2,2.513165E-3,-3.8359235E-3,-2.0007847E-3,1.0907426E-2,1.4896586E-2,7.279254E-3,-1.7030116E-3,1.518858E-2,1.7705949E-2,4.2741178E-3,-2.7143836E-3,-5.8831517E-3,-1.5916793E-2,1.0676449E-3,-5.0866487E-3,-1.5204622E-3,-3.6998955E-4,-9.410956E-3,6.171555E-4,2.989125E-3,4.83299E-3,1.9618465E-2,4.185519E-3,1.9987826E-3,-1.4017567E-2,-5.611451E-3,-2.4503593E-3,6.272751E-3,-3.7091912E-3,6.5460557E-4,-8.6308125E-4,2.564316E-3,5.569436E-3,1.5178183E-2,-1.576919E-2,-6.6625944E-4,-5.8951923E-3,4.028923E-3,2.88596E-3,-3.5285368E-4,3.111349E-3,1.8212738E-3,-1.9628357E-3,-3.230367E-3,-6.428775E-4,-2.3809683E-3,2.5242423E-3,-1.314008E-4],"categories":[],"categories_nodes":[],"categories_segments":[],"categories_sizes":[],"default_left":[0,0,0,0,0,0,0,0,0,0,0,0,0,0,0,0,0,0,0,0,0,0,0,0,0,0,0,0,0,0,0,0,0,0,0,0,0,0,0,0,0,0,0,0,0,0,0,0,0,0,0,0,0,0,0,0,0,0,0,0,0,0,0,0,0,0,0,0,0,0,0,0,0,0,0,0,0,0,0,0,0,0,0],"id":17,"left_children":[1,3,5,-1,7,9,11,13,15,17,19,-1,-1,-1,21,23,25,-1,27,-1,29,-1,31,33,35,-1,37,-1,39,41,43,45,47,-1,49,-1,-1,51,53,-1,-1,-1,55,57,-1,-1,-1,59,-1,-1,-1,61,63,-1,-1,65,67,-1,-1,69,-1,71,73,-1,-1,-1,-1,-1,75,77,-1,79,81,-1,-1,-1,-1,-1,-1,-1,-1,-1,-1],"loss_changes":[9.534107E-2,3.1969152E-2,1.6234048E-2,0E0,1.751038E-2,1.33546665E-2,3.2425248E-3,3.6538616E-3,2.5698682E-2,3.475804E-2,1.1352841E-2,0E0,0E0,0E0,1.9564219E-3,8.963315E-3,1.5252788E-2,0E0,2.0064086E-2,0E0,5.8382824E-3,0E0,2.84186E-3,5.2967966E-3,8.184444E-3,0E0,3.224796E-3,0E0,7.9713985E-3,7.348269E-3,6.326847E-4,1.2725266E-3,6.0813595E-3,0E0,2.6949253E-3,0E0,0E0,1.9421178E-3,1.0318209E-3,0E0,0E0,0E0,3.070496E-3,9.184731E-4,0E0,0E0,0E0,3.8540773E-3,0E0,0E0,0E0,1.8533447E-3,4.98157E-3,0E0,0E0,2.3696031E-3,2.3856405E-3,0E0,0E0,2.0320695E-3,0E0,2.3003959E-3,2.9618083E-3,0E0,0E0,0E0,0E0,0E0,3.508702E-4,1.2050979E-3,0E0,1.0927436E-3,1.9183115E-3,0E0,0E0,0E0,0E0,0E0,0E0,0E0,0E0,0E0,0E0],"parents":[2147483647,0,0,1,1,2,2,4,4,5,5,6,6,7,7,8,8,9,9,10,10,14,14,15,15,16,16,18,18,20,20,22,22,23,23,24,24,26,26,28,28,29,29,30,30,31,31,32,32,34,34,37,37,38,38,42,42,43,43,47,47,51,51,52,52,55,55,56,56,59,59,61,61,62,62,68,68,69,69,71,71,72,72],"right_children":[2,4,6,-1,8,10,12,14,16,18,20,-1,-1,-1,22,24,26,-1,28,-1,30,-1,32,34,36,-1,38,-1,40,42,44,46,48,-1,50,-1,-1,52,54,-1,-1,-1,56,58,-1,-1,-1,60,-1,-1,-1,62,64,-1,-1,66,68,-1,-1,70,-1,72,74,-1,-1,-1,-1,-1,76,78,-1,80,82,-1,-1,-1,-1,-1,-1,-1,-1,-1,-1],"split_conditions":[5.938E-1,1.039E-1,8.16E-1,7.643631E-3,2.533E-1,5.023E-1,3.155E-1,3.19E-2,2.444703E3,2.22E-1,2.616453E3,-3.7080508E-3,4.3057208E-4,-4.9210424E-3,3.378E-1,4.666E-1,3.4E1,-2.6821953E-3,2.444703E3,-2.1152582E-3,3.228141E3,-6.276666E-4,5.593E-1,6.9E1,5.302E-1,5.675585E-3,5.32E-1,2.5102715E-3,2.6E1,1.205E-1,3.283563E3,1.234E-1,6.511E-1,-8.456375E-3,8.405E-1,2.513165E-3,-3.8359235E-3,6.959E-1,5.19E-1,1.4896586E-2,7.279254E-3,-1.7030116E-3,6.916E-1,1.825E-1,4.2741178E-3,-2.7143836E-3,-5.8831517E-3,3.006203E3,1.0676449E-3,-5.0866487E-3,-1.5204622E-3,5.411E-1,7.917E-1,6.171555E-4,2.989125E-3,4.514E-1,3.151047E3,4.185519E-3,1.9987826E-3,3.94E-1,-5.611451E-3,4.172E-1,3.081297E3,-3.7091912E-3,6.5460557E-4,-8.6308125E-4,2.564316E-3,5.569436E-3,4.8E1,1.29E2,-6.6625944E-4,4.754E-1,3.665E-1,2.88596E-3,-3.5285368E-4,3.111349E-3,1.8212738E-3,-1.9628357E-3,-3.230367E-3,-6.428775E-4,-2.3809683E-3,2.5242423E-3,-1.314008E-4],"split_indices":[3,2,2,0,3,1,1,3,4,2,4,0,0,0,2,3,0,0,4,0,4,0,2,0,3,0,3,0,0,2,4,3,1,0,2,0,0,1,2,0,0,0,3,2,0,0,0,4,0,0,0,1,1,0,0,2,4,0,0,1,0,3,4,0,0,0,0,0,0,0,0,1,1,0,0,0,0,0,0,0,0,0,0],"split_type":[0,0,0,0,0,0,0,0,0,0,0,0,0,0,0,0,0,0,0,0,0,0,0,0,0,0,0,0,0,0,0,0,0,0,0,0,0,0,0,0,0,0,0,0,0,0,0,0,0,0,0,0,0,0,0,0,0,0,0,0,0,0,0,0,0,0,0,0,0,0,0,0,0,0,0,0,0,0,0,0,0,0,0],"sum_hessian":[7.02E2,4.59E2,2.43E2,1E1,4.49E2,2.23E2,2E1,1.97E2,2.52E2,4.4E1,1.79E2,1E1,1E1,1.9E1,1.78E2,5.8E1,1.94E2,1E1,3.4E1,1.3E1,1.66E2,1.6E1,1.62E2,3.7E1,2.1E1,1.3E1,1.81E2,1.2E1,2.2E1,8.1E1,8.5E1,2E1,1.42E2,1E1,2.7E1,1E1,1.1E1,1.6E2,2.1E1,1E1,1.2E1,1.3E1,6.8E1,2.8E1,5.7E1,1E1,1E1,1.29E2,1.3E1,1.6E1,1.1E1,1.32E2,2.8E1,1.1E1,1E1,2.1E1,4.7E1,1.1E1,1.7E1,1.18E2,1.1E1,1.01E2,3.1E1,1.4E1,1.4E1,1.1E1,1E1,1E1,3.7E1,1E2,1.8E1,6.6E1,3.5E1,1.3E1,1.8E1,1.9E1,1.8E1,4.8E1,5.2E1,5.4E1,1.2E1,1E1,2.5E1],"tree_param":{"num_deleted":"0","num_feature":"5","num_nodes":"83","size_leaf_vector":"1"}},{"base_weights":[2.7320182E-4,1.1684338E-2,-1.1523641E-3,-1.3850641E-2,5.311698E-3,-3.5169303E-2,-1.0352913E-2,1.4839195E-2,-1.4674759E-3,-1.4262207E-2,-8.679225E-3,3.0742653E-3,-1.3438592E-2,1.3061816E-2,8.529835E-3,-4.869266E-3,1.441464E-2,3.7699784E-3,-7.026926E-3,-1.7222636E-3,1.4356035E-2,-2.2542493E-3,-1.7087111E-2,-7.4887653E-3,1.4612739E-2,-4.9086316E-3,-3.0624305E-3,9.256835E-3,4.816089E-3,-1.4768951E-3,6.0781143E-3,1.1345943E-3,-5.784073E-3,-6.05103E-3,-1.50728375E-2,5.318955E-3,-1.8630639E-2,1.1219563E-3,1.8318139E-2,-4.7848076E-3,8.979504E-3,7.637166E-4,2.2210584E-3,-4.4541646E-4,-1.3468199E-3,-1.7025879E-2,-7.751438E-4,-7.508827E-3,-7.7135E-3,3.502631E-3,-2.1622062E-3,1.2355244E-2,2.27554E-2,8.463431E-3,-7.1780486E-3,3.9498694E-3,-8.680488E-4,-1.3664088E-2,-5.919642E-3,8.545122E-4,-3.5055103E-3,5.7975866E-4,1.4871892E-2,2.9609399E-2,1.6903792E-2,3.5747113E-3,-4.179077E-4,-4.3394654E-3,-4.654266E-3,-1.5420043E-2,-9.3457726E-4,3.470502E-3,1.728717E-3,3.3344654E-3,6.329609E-3,2.0930686E-3,3.3009187E-3,-7.6161446E-3,4.315356E-4,-2.0350763E-3,-3.4730039E-3,-8.968231E-4,-3.3536777E-3,-7.170359E-4,1.1457247E-3],"categories":[],"categories_nodes":[],"categories_segments":[],"categories_sizes":[],"default_left":[0,0,0,0,0,0,0,0,0,0,0,0,0,0,0,0,0,0,0,0,0,0,0,0,0,0,0,0,0,0,0,0,0,0,0,0,0,0,0,0,0,0,0,0,0,0,0,0,0,0,0,0,0,0,0,0,0,0,0,0,0,0,0,0,0,0,0,0,0,0,0,0,0,0,0,0,0,0,0,0,0,0,0,0,0],"id":18,"left_children":[1,-1,3,5,7,9,11,13,15,-1,17,19,21,-1,23,25,27,-1,-1,-1,29,31,33,35,37,-1,39,41,-1,-1,-1,-1,43,-1,45,-1,47,49,51,53,55,-1,-1,-1,-1,57,-1,-1,59,-1,-1,61,63,65,67,-1,-1,69,-1,-1,-1,-1,71,73,75,-1,-1,-1,77,79,-1,-1,-1,-1,-1,-1,-1,81,83,-1,-1,-1,-1,-1,-1],"loss_changes":[6.8665475E-2,0E0,5.597172E-2,1.6786274E-2,2.9215805E-2,4.146282E-2,8.286271E-3,7.4020505E-2,1.4387509E-2,0E0,2.3664683E-2,5.8631655E-3,6.572105E-3,0E0,1.6869044E-2,9.553121E-3,3.1942716E-3,0E0,0E0,0E0,1.094132E-2,1.3433913E-3,4.114911E-3,2.1539245E-2,6.228041E-3,0E0,4.294819E-3,6.131306E-4,0E0,0E0,0E0,0E0,1.8894859E-4,0E0,2.2084825E-3,0E0,1.0480708E-2,8.007879E-3,2.311822E-3,5.7678726E-3,5.4737586E-3,0E0,0E0,0E0,0E0,5.280368E-3,0E0,0E0,4.8265476E-3,0E0,0E0,9.343759E-4,1.7053727E-3,3.9873957E-3,7.0888307E-3,0E0,0E0,1.0658624E-3,0E0,0E0,0E0,0E0,6.8930537E-4,1.1444297E-3,1.4641974E-4,0E0,0E0,0E0,2.0519262E-3,8.957088E-4,0E0,0E0,0E0,0E0,0E0,0E0,0E0,2.3107124E-3,1.562357E-3,0E0,0E0,0E0,0E0,0E0,0E0],"parents":[2147483647,0,0,2,2,3,3,4,4,5,5,6,6,7,7,8,8,10,10,11,11,12,12,14,14,15,15,16,16,20,20,21,21,22,22,23,23,24,24,26,26,27,27,32,32,34,34,36,36,37,37,38,38,39,39,40,40,45,45,48,48,51,51,52,52,53,53,54,54,57,57,62,62,63,63,64,64,68,68,69,69,77,77,78,78],"right_children":[2,-1,4,6,8,10,12,14,16,-1,18,20,22,-1,24,26,28,-1,-1,-1,30,32,34,36,38,-1,40,42,-1,-1,-1,-1,44,-1,46,-1,48,50,52,54,56,-1,-1,-1,-1,58,-1,-1,60,-1,-1,62,64,66,68,-1,-1,70,-1,-1,-1,-1,72,74,76,-1,-1,-1,78,80,-1,-1,-1,-1,-1,-1,-1,82,84,-1,-1,-1,-1,-1,-1],"split_conditions":[7E0,1.1684338E-2,3.992E-1,5E1,5.7E1,2.420671E3,9.3E1,2.466125E3,3.141578E3,-1.4262207E-2,7.221E-1,1.502E-1,5.569E-1,1.3061816E-2,2.640016E3,6.4E1,5.873E-1,3.7699784E-3,-7.026926E-3,-1.7222636E-3,4.095E-1,1.22E2,2.776391E3,4.713E-1,6.803E-1,-4.9086316E-3,7.593E-1,3.17136E3,4.816089E-3,-1.4768951E-3,6.0781143E-3,1.1345943E-3,1.53E2,-6.05103E-3,2.619E-1,5.318955E-3,2.2E1,3.19439E3,3.230109E3,3.802E-1,3.411E-1,7.637166E-4,2.2210584E-3,-4.4541646E-4,-1.3468199E-3,2.938547E3,-7.751438E-4,-7.508827E-3,5.544E-1,3.502631E-3,-2.1622062E-3,2.8E1,2.5E1,8.3E1,2.892031E3,3.9498694E-3,-8.680488E-4,1.712E-1,-5.919642E-3,8.545122E-4,-3.5055103E-3,5.7975866E-4,7.606E-1,1.7E1,8.993E-1,3.5747113E-3,-4.179077E-4,-4.3394654E-3,6.222E-1,1.54E2,-9.3457726E-4,3.470502E-3,1.728717E-3,3.3344654E-3,6.329609E-3,2.0930686E-3,3.3009187E-3,1.68E2,5.193E-1,-2.0350763E-3,-3.4730039E-3,-8.968231E-4,-3.3536777E-3,-7.170359E-4,1.1457247E-3],"split_indices":[0,0,1,0,0,4,0,4,4,0,3,1,2,0,4,0,2,0,0,0,3,0,4,1,3,0,2,4,0,0,0,0,0,0,3,0,0,4,4,2,3,0,0,0,0,4,0,0,3,0,0,0,0,0,4,0,0,3,0,0,0,0,1,0,1,0,0,0,2,0,0,0,0,0,0,0,0,0,1,0,0,0,0,0,0],"split_type":[0,0,0,0,0,0,0,0,0,0,0,0,0,0,0,0,0,0,0,0,0,0,0,0,0,0,0,0,0,0,0,0,0,0,0,0,0,0,0,0,0,0,0,0,0,0,0,0,0,0,0,0,0,0,0,0,0,0,0,0,0,0,0,0,0,0,0,0,0,0,0,0,0,0,0,0,0,0,0,0,0,0,0,0,0],"sum_hessian":[6.93E2,1.3E1,6.8E2,2.29E2,4.51E2,3.1E1,1.98E2,1.87E2,2.64E2,1E1,2.1E1,3.7E1,1.61E2,1.6E1,1.71E2,2.18E2,4.6E1,1.1E1,1E1,1.7E1,2E1,4E1,1.21E2,4.7E1,1.24E2,1.4E1,2.04E2,3.5E1,1.1E1,1E1,1E1,1.1E1,2.9E1,1E1,1.11E2,1E1,3.7E1,2.7E1,9.7E1,1.79E2,2.5E1,1.7E1,1.8E1,1.3E1,1.6E1,9.3E1,1.8E1,1E1,2.7E1,1.1E1,1.6E1,4.3E1,5.4E1,2.7E1,1.52E2,1.2E1,1.3E1,8E1,1.3E1,1.4E1,1.3E1,1E1,3.3E1,2.3E1,3.1E1,1.2E1,1.5E1,1.7E1,1.35E2,6.5E1,1.5E1,1.3E1,2E1,1.2E1,1.1E1,1.4E1,1.7E1,8.5E1,5E1,4.2E1,2.3E1,7.3E1,1.2E1,2.9E1,2.1E1],"tree_param":{"num_deleted":"0","num_feature":"5","num_nodes":"85","size_leaf_vector":"1"}},{"base_weights":[-1.5792298E-3,7.559874E-3,-7.481872E-3,1.4637164E-2,9.0969855E-4,-3.71906E-2,-4.507168E-3,1.1786391E-2,8.2964515E-3,3.5239987E-3,-5.3673806E-3,-1.2288709E-2,-2.2748498E-2,-1.1084615E-2,1.4399992E-3,-4.7774143E-3,1.3566909E-2,8.086575E-3,-7.4676243E-3,-5.5016875E-3,-8.3682267E-4,-1.2750536E-2,-4.8709745E-3,-2.8102282E-3,1.4243704E-2,1.2719803E-2,6.589452E-3,3.7854381E-3,6.1870287E-3,-3.5471495E-3,-2.379343E-3,-1.0342259E-2,-5.944219E-3,-3.439012E-3,3.667288E-3,-2.4536967E-2,1.0164287E-3,7.485925E-3,5.23431E-3,-5.871606E-3,1.9167941E-2,-6.691123E-4,8.8597685E-3,-5.816237E-4,-1.5366917E-5,-1.3693067E-2,-2.4370253E-3,-1.0142263E-3,2.318036E-3,1.0356634E-3,-8.561022E-3,-2.8406782E-3,1.9295335E-2,1.0479271E-2,-1.7627259E-3,-7.7172252E-3,5.0289943E-3,1.5074311E-2,5.183434E-3,5.7149315E-3,1.241567E-2,-1.0476569E-2,-1.8762881E-2,-1.5302979E-3,2.023177E-3,-1.6720029E-2,1.0462602E-3,5.095144E-3,1.5499244E-3,1.2292827E-3,4.3303375E-3,-2.3869863E-3,1.1696342E-2,2.8959755E-3,1.3378164E-3,8.328588E-3,3.093508E-4,3.0217727E-3,8.206021E-4,-8.664367E-3,-2.87996E-3,-2.4473436E-2,-1.6948152E-3,-2.7202602E-4,9.722732E-4,-9.453621E-4,-5.09051E-3,-1.9886796E-3,2.5530518E-3,1.8318285E-3,-1.4378339E-3,1.365751E-3,2.926552E-3,1.0292925E-3,1.6506767E-3,-5.4648714E-3,-1.1407561E-2,-2.846401E-3,-4.997524E-3,-3.8188947E-3,6.74757E-4,-1.3627685E-3,-4.015965E-4,-1.2063235E-3,-2.4365645E-3,-8.416573E-5,-1.4850377E-3],"categories":[],"categories_nodes":[],"categories_segments":[],"categories_sizes":[],"default_left":[0,0,0,0,0,0,0,0,0,0,0,0,0,0,0,0,0,0,0,0,0,0,0,0,0,0,0,0,0,0,0,0,0,0,0,0,0,0,0,0,0,0,0,0,0,0,0,0,0,0,0,0,0,0,0,0,0,0,0,0,0,0,0,0,0,0,0,0,0,0,0,0,0,0,0,0,0,0,0,0,0,0,0,0,0,0,0,0,0,0,0,0,0,0,0,0,0,0,0,0,0,0,0,0,0,0,0],"id":19,"left_children":[1,3,5,7,9,11,13,-1,15,17,-1,-1,19,21,23,-1,25,27,29,-1,-1,31,33,35,37,-1,39,-1,41,-1,43,45,-1,-1,47,49,51,-1,53,55,57,-1,59,-1,-1,61,63,-1,-1,-1,-1,65,67,69,-1,-1,71,73,-1,75,77,79,81,-1,83,85,87,-1,-1,89,-1,-1,91,-1,-1,93,-1,-1,-1,95,-1,97,-1,-1,-1,-1,-1,99,-1,-1,-1,-1,-1,-1,-1,101,103,-1,-1,105,-1,-1,-1,-1,-1,-1,-1],"loss_changes":[3.916659E-2,1.3400275E-2,3.880561E-2,4.804056E-2,1.2834584E-2,1.9135308E-2,1.5741065E-2,0E0,2.4599161E-2,6.9811046E-3,0E0,0E0,5.177621E-3,1.915019E-3,1.1576783E-2,0E0,4.7239035E-2,2.5525354E-3,2.799643E-3,0E0,0E0,7.818092E-3,5.674182E-3,1.33274635E-2,1.425671E-2,0E0,1.5786678E-2,0E0,2.42791E-3,0E0,7.663874E-5,3.595611E-3,0E0,0E0,2.8398456E-3,1.981137E-2,9.713817E-3,0E0,3.5760263E-3,2.2521613E-2,1.9307826E-3,0E0,7.118364E-4,0E0,0E0,1.3689063E-3,1.2694459E-3,0E0,0E0,0E0,0E0,6.1675864E-3,2.389486E-3,4.5012925E-3,0E0,0E0,5.4276777E-3,4.6540517E-4,0E0,3.7936657E-4,1.2570024E-3,5.895607E-4,1.5348615E-3,0E0,3.663412E-4,3.59991E-3,3.8982122E-3,0E0,0E0,2.084704E-3,0E0,0E0,4.91397E-4,0E0,0E0,1.5720492E-5,0E0,0E0,0E0,3.7650065E-4,0E0,3.312379E-4,0E0,0E0,0E0,0E0,0E0,8.400221E-4,0E0,0E0,0E0,0E0,0E0,0E0,0E0,1.8433883E-4,2.366507E-4,0E0,0E0,9.6279156E-4,0E0,0E0,0E0,0E0,0E0,0E0,0E0],"parents":[2147483647,0,0,1,1,2,2,3,3,4,4,5,5,6,6,8,8,9,9,12,12,13,13,14,14,16,16,17,17,18,18,21,21,22,22,23,23,24,24,26,26,28,28,30,30,31,31,34,34,35,35,36,36,38,38,39,39,40,40,42,42,45,45,46,46,51,51,52,52,53,53,56,56,57,57,59,59,60,60,61,61,62,62,64,64,65,65,66,66,69,69,72,72,75,75,79,79,81,81,87,87,95,95,96,96,99,99],"right_children":[2,4,6,8,10,12,14,-1,16,18,-1,-1,20,22,24,-1,26,28,30,-1,-1,32,34,36,38,-1,40,-1,42,-1,44,46,-1,-1,48,50,52,-1,54,56,58,-1,60,-1,-1,62,64,-1,-1,-1,-1,66,68,70,-1,-1,72,74,-1,76,78,80,82,-1,84,86,88,-1,-1,90,-1,-1,92,-1,-1,94,-1,-1,-1,96,-1,98,-1,-1,-1,-1,-1,100,-1,-1,-1,-1,-1,-1,-1,102,104,-1,-1,106,-1,-1,-1,-1,-1,-1,-1],"split_conditions":[4.673E-1,4.5E1,2.394734E3,2.466125E3,9.259E-1,7.4E1,3.166E-1,1.1786391E-2,2.66789E3,1.23E2,-5.3673806E-3,-1.2288709E-2,8.405E-1,5.588E-1,7.702E-1,-4.7774143E-3,2.819437E3,2.416672E3,1.336E-1,-5.5016875E-3,-8.3682267E-4,3.005734E3,1.08E2,2.2E1,7.873E-1,1.2719803E-2,3.236515E3,3.7854381E-3,5.06E-1,-3.5471495E-3,1.66E2,1.969E-1,-5.944219E-3,-3.439012E-3,6.1E-1,1.2E1,6.442E-1,7.485925E-3,9.299E-1,6.253E-1,9.578E-1,-6.691123E-4,6.643E-1,-5.816237E-4,-1.5366917E-5,1.54E2,2.984E-1,-1.0142263E-3,2.318036E-3,1.0356634E-3,-8.561022E-3,2.521985E3,5.853E-1,6.756E-1,-1.7627259E-3,-7.7172252E-3,6.103E-1,3.39E-1,5.183434E-3,6.118E-1,7.533E-1,1.687E-1,7.873E-1,-1.5302979E-3,1.14E2,6.086E-1,5.443E-1,5.095144E-3,1.5499244E-3,5.241E-1,4.3303375E-3,-2.3869863E-3,3.216546E3,2.8959755E-3,1.3378164E-3,5.443E-1,3.093508E-4,3.0217727E-3,8.206021E-4,7.189E-1,-2.87996E-3,6.591E-1,-1.6948152E-3,-2.7202602E-4,9.722732E-4,-9.453621E-4,-5.09051E-3,4.633E-1,2.5530518E-3,1.8318285E-3,-1.4378339E-3,1.365751E-3,2.926552E-3,1.0292925E-3,1.6506767E-3,2.860781E3,9.27E-2,-2.846401E-3,-4.997524E-3,3.069E3,6.74757E-4,-1.3627685E-3,-4.015965E-4,-1.2063235E-3,-2.4365645E-3,-8.416573E-5,-1.4850377E-3],"split_indices":[2,0,4,4,1,0,3,0,4,0,0,0,2,1,2,0,4,4,3,0,0,4,0,0,2,0,4,0,3,0,0,3,0,0,2,0,3,0,2,1,3,0,3,0,0,0,1,0,0,0,0,4,1,3,0,0,3,2,0,3,3,3,2,0,0,1,3,0,0,3,0,0,4,0,0,3,0,0,0,2,0,2,0,0,0,0,0,3,0,0,0,0,0,0,0,4,3,0,0,4,0,0,0,0,0,0,0],"split_type":[0,0,0,0,0,0,0,0,0,0,0,0,0,0,0,0,0,0,0,0,0,0,0,0,0,0,0,0,0,0,0,0,0,0,0,0,0,0,0,0,0,0,0,0,0,0,0,0,0,0,0,0,0,0,0,0,0,0,0,0,0,0,0,0,0,0,0,0,0,0,0,0,0,0,0,0,0,0,0,0,0,0,0,0,0,0,0,0,0,0,0,0,0,0,0,0,0,0,0,0,0,0,0,0,0,0,0],"sum_hessian":[7.24E2,2.84E2,4.4E2,1.37E2,1.47E2,3.9E1,4.01E2,1.3E1,1.24E2,1.37E2,1E1,1E1,2.9E1,1.9E2,2.11E2,1.5E1,1.09E2,9.7E1,4E1,1.8E1,1.1E1,1.49E2,4.1E1,1.59E2,5.2E1,1E1,9.9E1,1E1,8.7E1,1E1,3E1,1.36E2,1.3E1,1.4E1,2.7E1,2.3E1,1.36E2,1.1E1,4.1E1,5E1,4.9E1,1.8E1,6.9E1,2E1,1E1,9.5E1,4.1E1,1.4E1,1.3E1,1.1E1,1.2E1,1.13E2,2.3E1,3.1E1,1E1,1E1,4E1,3.8E1,1.1E1,3.8E1,3.1E1,6E1,3.5E1,1.6E1,2.5E1,2.4E1,8.9E1,1E1,1.3E1,2E1,1.1E1,1E1,3E1,2.8E1,1E1,2.2E1,1.6E1,1.7E1,1.4E1,4.9E1,1.1E1,2E1,1.5E1,1.3E1,1.2E1,1.4E1,1E1,7.4E1,1.5E1,1E1,1E1,2E1,1E1,1.1E1,1.1E1,2.4E1,2.5E1,1E1,1E1,5.7E1,1.7E1,1.2E1,1.2E1,1.2E1,1.3E1,3.5E1,2.2E1],"tree_param":{"num_deleted":"0","num_feature":"5","num_nodes":"107","size_leaf_vector":"1"}},{"base_weights":[-1.7391912E-4,3.129798E-2,-2.0331542E-3,1.9310413E-2,-8.6915195E-3,-6.6790017E-3,9.5679965E-3,-6.3672084E-3,1.6212433E-3,4.714141E-3,-7.546706E-3,4.2894925E-3,1.7886031E-2,-6.653668E-3,-7.462389E-3,-5.1296744E-3,7.211953E-3,5.4508336E-3,1.5143199E-2,3.785829E-3,-7.6144775E-3,-3.1441075E-3,1.4791299E-3,-5.3293176E-4,9.116865E-3,1.14432825E-2,3.0864363E-3,-2.0062888E-2,-5.5307657E-3,6.6776304E-3,1.5022296E-2,1.5421388E-2,5.3664146E-4,-9.476603E-3,-7.772916E-3,4.2833495E-3,-6.767687E-3,4.6841465E-3,2.4491372E-3,3.5065713E-3,1.2186853E-3,1.7024308E-3,3.3208416E-3,7.947974E-3,-5.542502E-3,-7.2508366E-3,1.398658E-3,1.18304495E-4,5.8805216E-3,3.1496529E-3,-1.8023624E-3,-1.0583293E-2,-5.462618E-3,7.607487E-3,4.40417E-4,-1.2706339E-3,-2.4187288E-3,-2.278591E-3,-7.3119113E-4,1.689996E-3,6.732051E-4],"categories":[],"categories_nodes":[],"categories_segments":[],"categories_sizes":[],"default_left":[0,0,0,0,0,0,0,0,0,0,0,0,0,0,0,0,0,0,0,0,0,0,0,0,0,0,0,0,0,0,0,0,0,0,0,0,0,0,0,0,0,0,0,0,0,0,0,0,0,0,0,0,0,0,0,0,0,0,0,0,0],"id":20,"left_children":[1,3,5,-1,7,9,11,-1,-1,-1,13,15,17,19,-1,21,23,-1,25,-1,27,-1,-1,-1,29,31,-1,33,35,37,39,41,-1,-1,43,-1,45,47,-1,-1,-1,-1,-1,49,-1,51,-1,-1,53,-1,-1,55,57,59,-1,-1,-1,-1,-1,-1,-1],"loss_changes":[4.195942E-2,1.3492247E-1,3.655229E-2,0E0,1.5385613E-2,1.4809435E-2,8.441193E-3,0E0,0E0,0E0,1.5292207E-2,3.3402522E-3,2.5079586E-3,1.3163159E-2,0E0,5.6621763E-3,1.8491661E-3,0E0,5.6907535E-4,0E0,1.15356E-2,0E0,0E0,0E0,1.0232558E-3,1.0333247E-3,0E0,2.8179463E-2,1.4994847E-2,8.3053205E-4,8.499804E-4,3.0585565E-4,0E0,0E0,1.9705955E-2,0E0,2.7741306E-3,2.196203E-4,0E0,0E0,0E0,0E0,0E0,6.46412E-3,0E0,2.0934436E-3,0E0,0E0,1.825454E-4,0E0,0E0,1.3319543E-3,2.069137E-3,1.6309437E-4,0E0,0E0,0E0,0E0,0E0,0E0,0E0],"parents":[2147483647,0,0,1,1,2,2,4,4,5,5,6,6,10,10,11,11,12,12,13,13,15,15,16,16,18,18,20,20,24,24,25,25,27,27,28,28,29,29,30,30,31,31,34,34,36,36,37,37,43,43,45,45,48,48,51,51,52,52,53,53],"right_children":[2,4,6,-1,8,10,12,-1,-1,-1,14,16,18,20,-1,22,24,-1,26,-1,28,-1,-1,-1,30,32,-1,34,36,38,40,42,-1,-1,44,-1,46,48,-1,-1,-1,-1,-1,50,-1,52,-1,-1,54,-1,-1,56,58,60,-1,-1,-1,-1,-1,-1,-1],"split_conditions":[1.3E1,7.819E-1,3.095687E3,1.9310413E-2,5.332E-1,1.039E-1,7.716E-1,-6.3672084E-3,1.6212433E-3,4.714141E-3,9.2E-1,4.7E1,6.329E-1,1.92E-1,-7.462389E-3,3.21825E3,4.603E-1,5.4508336E-3,3.236515E3,3.785829E-3,4.7E1,-3.1441075E-3,1.4791299E-3,-5.3293176E-4,6.643E-1,8.539E-1,3.0864363E-3,2.459297E3,5.4E1,5.593E-1,7.221E-1,8.072E-1,5.3664146E-4,-9.476603E-3,6.648E-1,4.2833495E-3,9.569E-1,6.2E1,2.4491372E-3,3.5065713E-3,1.2186853E-3,1.7024308E-3,3.3208416E-3,3.7E1,-5.542502E-3,1.788E-1,1.398658E-3,1.18304495E-4,4.752E-1,3.1496529E-3,-1.8023624E-3,1.55E2,2.392375E3,6.559E-1,4.40417E-4,-1.2706339E-3,-2.4187288E-3,-2.278591E-3,-7.3119113E-4,1.689996E-3,6.732051E-4],"split_indices":[0,3,4,0,1,2,3,0,0,0,1,0,1,2,0,4,3,0,4,0,0,0,0,0,3,3,0,4,0,2,3,3,0,0,1,0,2,0,0,0,0,0,0,0,0,3,0,0,2,0,0,0,4,1,0,0,0,0,0,0,0],"split_type":[0,0,0,0,0,0,0,0,0,0,0,0,0,0,0,0,0,0,0,0,0,0,0,0,0,0,0,0,0,0,0,0,0,0,0,0,0,0,0,0,0,0,0,0,0,0,0,0,0,0,0,0,0,0,0,0,0,0,0,0,0],"sum_hessian":[7.15E2,3.9E1,6.76E2,1.2E1,2.7E1,4.83E2,1.93E2,1E1,1.7E1,1.1E1,4.72E2,1.19E2,7.4E1,4.62E2,1E1,2.8E1,9.1E1,1E1,6.4E1,1.4E1,4.48E2,1.4E1,1.4E1,1.4E1,7.7E1,3.2E1,3.2E1,6.3E1,3.85E2,5.6E1,2.1E1,2.1E1,1.1E1,1.5E1,4.8E1,1.4E1,3.71E2,4.6E1,1E1,1.1E1,1E1,1.1E1,1E1,3E1,1.8E1,3.6E2,1.1E1,1.1E1,3.5E1,1.9E1,1.1E1,1.24E2,2.36E2,2.2E1,1.3E1,7.1E1,5.3E1,2.7E1,2.09E2,1.2E1,1E1],"tree_param":{"num_deleted":"0","num_feature":"5","num_nodes":"61","size_leaf_vector":"1"}},{"base_weights":[1.2618222E-4,7.6905806E-3,-1.0019526E-3,-5.809905E-3,5.300245E-3,2.7037715E-3,-6.560522E-3,6.296461E-3,3.457663E-3,-5.8756596E-3,-5.668697E-3,-1.6586179E-2,5.1818313E-3,2.7755054E-3,-7.0928014E-3,2.5351968E-4,-4.9727433E-3,-9.730462E-3,7.963708E-3,3.6908605E-3,-2.8354262E-3,-4.4911075E-3,-6.277116E-3,-2.5192546E-2,2.350934E-3,2.0617347E-2,5.709502E-3,-6.720057E-3,1.1724842E-3,-8.046604E-3,-3.4231532E-4,-6.1623477E-3,-8.577487E-4,9.593237E-3,7.3529994E-3,-2.4415776E-3,7.430221E-3,-1.9753913E-3,-1.8698565E-4,-3.2833064E-4,6.26078E-4,-9.336802E-3,-2.3302909E-3,2.3020378E-3,-3.2369774E-3,3.93691E-3,-2.0279994E-4,4.574067E-3,1.5050355E-2,-8.485395E-3,-3.919933E-3,-9.505667E-3,3.6963085E-3,-5.395273E-3,1.2518099E-3,3.4902673E-3,2.7823034E-3,9.501249E-3,2.1151427E-2,-7.462443E-4,-1.872265E-3,-2.8518885E-3,-5.030792E-4,2.995947E-4,-1.9136721E-3,1.6880855E-3,1.0881065E-4,8.655933E-4,2.0162442E-3,4.4500465E-3,2.3560498E-3],"categories":[],"categories_nodes":[],"categories_segments":[],"categories_sizes":[],"default_left":[0,0,0,0,0,0,0,0,0,0,0,0,0,0,0,0,0,0,0,0,0,0,0,0,0,0,0,0,0,0,0,0,0,0,0,0,0,0,0,0,0,0,0,0,0,0,0,0,0,0,0,0,0,0,0,0,0,0,0,0,0,0,0,0,0,0,0,0,0,0,0],"id":21,"left_children":[1,-1,3,5,7,-1,9,-1,11,-1,13,15,17,19,21,-1,-1,23,25,-1,27,-1,29,31,-1,33,35,37,39,41,43,-1,-1,45,-1,-1,47,-1,-1,-1,-1,49,51,-1,53,-1,-1,55,57,59,-1,61,-1,63,-1,65,-1,67,69,-1,-1,-1,-1,-1,-1,-1,-1,-1,-1,-1,-1],"loss_changes":[3.8491722E-2,0E0,2.2119978E-2,6.915805E-3,1.86215E-2,0E0,9.9715125E-3,0E0,1.0453633E-2,0E0,4.7096023E-3,5.705424E-3,1.1568602E-2,6.205803E-3,5.1877666E-3,0E0,0E0,1.6499568E-2,6.556878E-3,0E0,7.084955E-4,0E0,3.378747E-3,6.055532E-3,0E0,8.523888E-3,7.0778863E-3,6.375853E-4,1.9124424E-4,1.8072855E-3,3.0955714E-3,0E0,0E0,3.7700832E-3,0E0,0E0,3.957552E-3,0E0,0E0,0E0,0E0,2.2117384E-3,8.4202E-3,0E0,1.4942295E-3,0E0,0E0,1.7107129E-3,1.4918093E-3,2.0191306E-3,0E0,1.7509132E-3,0E0,2.3048245E-3,0E0,2.3443825E-3,0E0,2.4328171E-4,5.046837E-4,0E0,0E0,0E0,0E0,0E0,0E0,0E0,0E0,0E0,0E0,0E0,0E0],"parents":[2147483647,0,0,2,2,3,3,4,4,6,6,8,8,10,10,11,11,12,12,13,13,14,14,17,17,18,18,20,20,22,22,23,23,25,25,26,26,27,27,28,28,29,29,30,30,33,33,36,36,41,41,42,42,44,44,47,47,48,48,49,49,51,51,53,53,55,55,57,57,58,58],"right_children":[2,-1,4,6,8,-1,10,-1,12,-1,14,16,18,20,22,-1,